
#include <eml_net.h>
static const float model_layer_0_biases[350] = { -0.120615f, -0.073020f, 0.030136f, 0.036362f, 0.103349f, -0.073720f, -0.028095f, 0.001892f, -0.061400f, 0.041904f, -0.101843f, -0.052086f, 0.086882f, -0.015630f, 0.036870f, -0.045356f, -0.168311f, -0.052456f, -0.073852f, -0.088596f, -0.102303f, -0.122652f, 0.062399f, 0.064089f, 0.059546f, -0.115756f, -0.002191f, 0.014117f, -0.103679f, -0.008948f, -0.031358f, -0.028276f, 0.099965f, -0.133140f, -0.060529f, -0.045452f, -0.037979f, -0.004248f, -0.098607f, 0.055292f, 0.035980f, -0.061588f, -0.036977f, 0.061857f, -0.141983f, -0.050203f, -0.100259f, -0.058852f, 0.044788f, 0.037800f, -0.017502f, 0.078115f, -0.018845f, -0.042667f, -0.061011f, -0.120356f, -0.048211f, 0.013005f, -0.020078f, -0.024250f, -0.019000f, -0.144833f, 0.025814f, -0.010006f, -0.077610f, 0.011069f, -0.018484f, -0.006573f, 0.020065f, 0.053997f, -0.116197f, -0.074440f, 0.015496f, 0.038230f, -0.161172f, 0.069529f, -0.055674f, 0.043371f, -0.094547f, -0.086218f, 0.016399f, -0.027759f, -0.038287f, -0.052117f, -0.015567f, -0.007731f, -0.000470f, -0.057212f, 0.052733f, -0.079987f, -0.103518f, -0.068315f, 0.048908f, 0.005281f, -0.049291f, 0.055988f, -0.043506f, 0.075971f, -0.132863f, -0.184695f, 0.002390f, -0.008759f, -0.037055f, -0.083176f, -0.070817f, -0.027058f, 0.057562f, -0.040301f, -0.004051f, -0.133313f, 0.061132f, -0.107498f, -0.178313f, 0.045098f, 0.014203f, -0.054306f, 0.046582f, 0.047762f, 0.005926f, -0.097683f, -0.118487f, -0.073215f, 0.024125f, 0.035847f, -0.015209f, -0.021056f, -0.029074f, -0.015067f, -0.026042f, -0.101720f, -0.077524f, 0.064100f, -0.119638f, 0.045673f, -0.091145f, -0.090891f, 0.033430f, -0.110486f, 0.076904f, -0.057018f, -0.055083f, -0.059765f, -0.012684f, 0.135932f, -0.151113f, 0.017360f, 0.045489f, -0.009295f, 0.109275f, -0.055900f, -0.055993f, -0.061210f, 0.085578f, -0.002981f, -0.076076f, -0.101901f, 0.097153f, 0.009132f, -0.030508f, -0.123601f, -0.094250f, -0.032944f, 0.038012f, -0.035225f, 0.092170f, 0.009529f, 0.083676f, -0.075428f, 0.035721f, 0.053701f, -0.069826f, -0.076891f, -0.022382f, -0.053444f, 0.045797f, 0.009866f, -0.024172f, 0.036116f, 0.051161f, -0.163637f, 0.037963f, 0.002525f, 0.016845f, 0.009253f, 0.036263f, -0.057295f, -0.126512f, 0.020333f, 0.000013f, 0.074730f, 0.022281f, -0.039045f, -0.065664f, -0.045555f, 0.005126f, 0.003271f, 0.090417f, -0.090073f, 0.013339f, -0.031269f, -0.057089f, 0.071337f, 0.049620f, -0.021951f, -0.141732f, 0.053573f, 0.019249f, -0.008150f, 0.038399f, -0.064623f, -0.112347f, 0.017676f, -0.053913f, -0.085327f, -0.001268f, -0.130882f, -0.099932f, 0.098623f, -0.062979f, -0.068634f, 0.037175f, -0.099331f, -0.109402f, -0.019680f, 0.057801f, 0.062277f, 0.075177f, 0.000281f, -0.097351f, 0.061845f, 0.066996f, -0.104220f, 0.066435f, 0.069750f, 0.029961f, 0.031764f, -0.067574f, -0.100691f, -0.000250f, 0.026481f, -0.105719f, -0.157800f, -0.140287f, -0.041491f, -0.054659f, -0.103751f, 0.014961f, 0.042396f, -0.025594f, -0.091150f, -0.168104f, 0.021059f, 0.014539f, -0.099883f, -0.150999f, -0.007439f, 0.064796f, -0.125649f, 0.028223f, -0.047441f, 0.051528f, 0.041697f, -0.043354f, -0.051579f, 0.079305f, -0.054343f, 0.023831f, 0.023310f, 0.088522f, -0.096144f, 0.007779f, -0.012491f, -0.074968f, -0.011430f, -0.032316f, 0.017350f, 0.070950f, -0.057666f, -0.141473f, -0.112140f, 0.004026f, -0.017121f, -0.010979f, -0.032800f, 0.030471f, -0.054851f, 0.014418f, 0.013543f, -0.066775f, 0.064453f, -0.100223f, -0.013094f, -0.014123f, 0.025708f, 0.044811f, -0.017229f, -0.081405f, 0.067019f, -0.108227f, -0.024394f, -0.108511f, 0.067772f, -0.081461f, 0.029474f, 0.022763f, 0.033528f, -0.021599f, -0.110773f, 0.046753f, -0.029292f, -0.022676f, -0.003571f, 0.001481f, -0.154476f, -0.112931f, 0.035585f, 0.010535f, 0.046433f, -0.042747f, -0.088625f, -0.069272f, -0.129658f, -0.096605f, -0.022024f, -0.130283f, -0.011259f, -0.041095f, 0.024020f, -0.035888f, -0.050271f, -0.049561f, -0.016110f, -0.110865f, -0.046956f, -0.128035f, 0.035748f, 0.027594f, -0.128930f, -0.055615f, -0.040563f, -0.056236f, 0.053663f, -0.057921f, -0.082950f, 0.025368f, -0.004778f, -0.036312f, -0.114553f, -0.091116f, -0.123990f };
static const float model_layer_0_weights[9800] = { 0.029841f, -0.002720f, 0.074215f, -0.023150f, -0.048917f, 0.039269f, 0.018697f, -0.046991f, -0.027228f, 0.024265f, -0.047212f, -0.062603f, 0.038413f, 0.031601f, 0.016752f, -0.059831f, -0.003936f, -0.023893f, -0.011774f, -0.018262f, 0.024575f, 0.033151f, 0.007055f, 0.101627f, 0.052088f, 0.014130f, 0.005951f, 0.069590f, -0.037384f, -0.004733f, -0.056578f, -0.048010f, -0.072791f, -0.053341f, 0.013666f, -0.098350f, 0.037978f, -0.120296f, 0.051898f, -0.049097f, 0.041326f, 0.018852f, 0.097589f, -0.035072f, 0.050544f, -0.059921f, 0.102224f, 0.015437f, -0.001503f, 0.027535f, 0.039697f, -0.060095f, 0.040002f, -0.007658f, 0.018007f, 0.017293f, 0.014938f, -0.007072f, -0.004684f, -0.038259f, 0.065948f, 0.029797f, 0.158174f, -0.021382f, -0.040985f, 0.072544f, 0.025684f, -0.062063f, 0.021311f, 0.021210f, -0.143355f, -0.147790f, 0.039154f, 0.100054f, -0.048921f, 0.039172f, 0.027929f, -0.023653f, -0.037091f, 0.018389f, 0.058711f, -0.024843f, -0.049169f, 0.003704f, 0.132198f, -0.006560f, -0.073972f, -0.079325f, 0.055714f, 0.055105f, -0.002370f, 0.046635f, -0.094294f, 0.014953f, -0.001654f, -0.030738f, 0.022899f, -0.001966f, 0.069300f, -0.006320f, -0.007379f, -0.027107f, 0.007606f, 0.114591f, 0.041812f, -0.011307f, 0.040968f, -0.054400f, -0.023256f, -0.013379f, 0.018049f, 0.007463f, 0.118959f, 0.068862f, 0.016694f, 0.028653f, -0.113486f, 0.060651f, -0.009734f, -0.009773f, -0.016250f, -0.051118f, -0.003323f, -0.043989f, 0.051238f, 0.036127f, 0.083162f, 0.033591f, 0.000992f, -0.011359f, -0.076837f, -0.042782f, 0.112921f, 0.032649f, 0.016565f, 0.027463f, 0.033233f, 0.039512f, 0.028911f, 0.004076f, 0.060404f, -0.005491f, 0.037133f, 0.011625f, -0.013442f, -0.120959f, -0.032629f, 0.020868f, 0.030960f, 0.016353f, 0.054602f, -0.079928f, 0.026449f, -0.015737f, -0.005932f, -0.020248f, -0.021149f, -0.006196f, 0.106504f, -0.049863f, -0.135562f, -0.040784f, -0.019091f, 0.054714f, -0.037401f, -0.055441f, -0.048593f, -0.037799f, 0.042195f, -0.034251f, 0.025427f, 0.050458f, -0.037914f, 0.051918f, 0.065173f, -0.023746f, 0.013827f, -0.018093f, -0.063955f, -0.134341f, -0.000282f, -0.008289f, 0.000151f, -0.017241f, -0.045533f, -0.034087f, -0.072228f, 0.057105f, -0.047836f, 0.023502f, -0.077175f, -0.051680f, 0.028099f, 0.001009f, -0.036202f, -0.037479f, -0.018764f, 0.052025f, -0.109868f, 0.000730f, 0.012472f, -0.007620f, -0.011686f, -0.024359f, -0.118509f, 0.038056f, -0.041852f, 0.034909f, -0.022201f, -0.077056f, -0.052916f, -0.051877f, 0.016133f, 0.068577f, 0.012437f, 0.034604f, -0.010015f, 0.081387f, -0.000729f, -0.007945f, -0.013113f, -0.047350f, -0.011130f, -0.003644f, 0.045999f, 0.070591f, -0.013216f, -0.030475f, -0.044357f, -0.012253f, -0.033559f, -0.136766f, -0.052585f, 0.021734f, 0.009971f, -0.053667f, -0.007834f, -0.013454f, -0.017448f, -0.040177f, -0.032075f, 0.033270f, -0.000962f, -0.028809f, -0.017862f, 0.022715f, 0.002377f, -0.050937f, -0.058362f, 0.027691f, 0.050835f, 0.028547f, -0.039448f, 0.024680f, -0.045121f, 0.020384f, -0.054990f, 0.011758f, -0.090946f, -0.033971f, -0.035883f, 0.031845f, -0.066905f, 0.049402f, -0.021501f, 0.023832f, 0.009474f, 0.009615f, -0.004679f, -0.011499f, -0.063578f, 0.010446f, -0.065075f, -0.005003f, 0.021795f, -0.007952f, -0.000741f, -0.158600f, 0.059166f, -0.020913f, 0.039793f, -0.062527f, -0.022594f, -0.021030f, 0.031082f, -0.107449f, 0.016086f, -0.003025f, 0.058308f, 0.068668f, -0.047941f, -0.071777f, 0.005664f, 0.043481f, -0.003630f, 0.126765f, -0.024254f, 0.007248f, 0.000937f, 0.013785f, -0.003654f, 0.092829f, -0.022624f, -0.070732f, 0.051027f, 0.059621f, 0.011380f, -0.031073f, -0.057068f, -0.004406f, -0.006431f, -0.017028f, 0.064824f, 0.024496f, 0.025229f, -0.030765f, -0.020008f, 0.089986f, 0.068049f, 0.105572f, -0.026297f, 0.081030f, -0.017946f, -0.031388f, 0.005737f, -0.065436f, -0.059775f, -0.092464f, -0.014684f, 0.007171f, 0.018996f, -0.010999f, -0.053925f, 0.036919f, 0.020586f, 0.046763f, 0.018058f, -0.013878f, -0.069153f, 0.003057f, -0.099177f, -0.003402f, 0.044226f, -0.039026f, -0.024329f, 0.096547f, 0.045552f, -0.020202f, 0.030217f, 0.018140f, 0.049719f, -0.008822f, -0.039577f, 0.017964f, -0.021182f, -0.049554f, 0.039342f, -0.052057f, -0.001703f, 0.007185f, -0.047998f, -0.013313f, 0.002269f, -0.069643f, -0.052645f, 0.003151f, 0.055037f, -0.025726f, 0.003042f, 0.003948f, 0.060932f, -0.092659f, -0.019601f, 0.000200f, 0.046620f, -0.057848f, 0.016934f, 0.003840f, 0.021684f, 0.008364f, -0.029970f, -0.070392f, -0.103672f, -0.040148f, -0.011706f, -0.029885f, -0.010518f, -0.076955f, 0.001365f, -0.065500f, 0.034288f, -0.002683f, 0.052769f, -0.018669f, 0.032470f, 0.076587f, 0.086735f, 0.006395f, -0.026876f, -0.031186f, -0.012156f, -0.001094f, 0.003214f, 0.048330f, 0.009017f, 0.026784f, -0.005025f, 0.093273f, -0.063018f, 0.021208f, 0.018688f, 0.025785f, -0.055316f, -0.014178f, -0.030842f, 0.004887f, 0.000218f, -0.071392f, 0.014702f, 0.020198f, -0.111742f, -0.056067f, -0.000660f, 0.041830f, 0.090526f, 0.028702f, 0.029828f, 0.031494f, 0.097126f, -0.030929f, -0.013369f, -0.015310f, -0.015916f, 0.035595f, 0.059609f, -0.008520f, 0.083837f, 0.031119f, 0.078229f, -0.079919f, 0.006387f, 0.044089f, -0.057672f, 0.031781f, -0.047372f, 0.013541f, -0.007432f, -0.011660f, -0.049428f, 0.078101f, 0.028658f, -0.053195f, 0.008504f, 0.024707f, 0.004552f, -0.064052f, 0.004442f, 0.026938f, 0.023634f, 0.031254f, -0.048036f, 0.045434f, -0.041211f, -0.005137f, -0.022336f, 0.036087f, -0.056043f, -0.001322f, 0.052120f, -0.005938f, 0.059243f, -0.051773f, 0.007752f, 0.059628f, -0.034090f, 0.040258f, 0.006350f, 0.028282f, -0.063448f, -0.000478f, 0.054903f, -0.026637f, 0.049417f, 0.015040f, 0.020510f, 0.038667f, -0.001388f, 0.008410f, 0.028158f, -0.025100f, 0.065563f, -0.035926f, -0.040762f, 0.025493f, 0.015269f, -0.119287f, -0.001450f, 0.044664f, 0.030095f, 0.006356f, 0.007826f, -0.043461f, -0.013867f, -0.003687f, -0.019567f, 0.017071f, -0.087291f, -0.027796f, 0.033055f, 0.086917f, -0.114771f, 0.012693f, 0.067716f, 0.037448f, -0.095350f, -0.057662f, 0.014521f, 0.112770f, -0.043301f, -0.034372f, -0.013841f, -0.024504f, -0.036724f, -0.056901f, 0.059458f, 0.026451f, 0.000128f, 0.010460f, 0.023806f, -0.066323f, -0.002909f, -0.039009f, 0.045367f, 0.004285f, 0.005737f, -0.013960f, -0.035141f, -0.005336f, -0.049488f, -0.046495f, 0.000162f, -0.066591f, -0.032359f, -0.002871f, -0.016099f, -0.046839f, 0.001853f, 0.025670f, -0.082955f, 0.028874f, 0.004044f, -0.033323f, 0.011602f, 0.015965f, -0.069590f, -0.043500f, -0.005146f, -0.004099f, -0.023312f, 0.007756f, -0.004573f, 0.072037f, -0.008956f, 0.099936f, -0.010749f, -0.007003f, -0.013897f, -0.034046f, -0.037574f, 0.029913f, 0.007401f, 0.022944f, -0.017265f, -0.009615f, 0.037650f, -0.024343f, -0.043023f, -0.057918f, -0.062935f, 0.015583f, -0.078114f, -0.118478f, 0.004573f, 0.015916f, -0.024131f, 0.019883f, -0.018396f, -0.036056f, -0.025810f, -0.015894f, 0.016484f, 0.022852f, 0.031224f, 0.013629f, -0.002929f, -0.003033f, -0.044780f, -0.073935f, -0.064447f, -0.000216f, 0.036862f, -0.039802f, -0.025431f, 0.005976f, -0.017503f, -0.023963f, -0.074529f, -0.029116f, 0.021217f, -0.044700f, 0.028061f, 0.002698f, -0.072855f, 0.008072f, 0.025279f, 0.013636f, 0.043203f, -0.014821f, -0.086707f, 0.026055f, 0.001000f, -0.089870f, 0.033270f, -0.012158f, 0.056543f, 0.003175f, -0.042683f, 0.019830f, -0.084767f, -0.074144f, 0.008604f, 0.016754f, -0.023044f, -0.006991f, -0.023115f, 0.059516f, 0.038968f, -0.007605f, 0.041771f, -0.040053f, -0.087514f, -0.074384f, -0.007235f, -0.007482f, 0.014377f, 0.084982f, 0.023868f, 0.014571f, 0.029226f, -0.031409f, -0.003685f, -0.068474f, -0.008490f, -0.015599f, 0.051403f, 0.034520f, 0.009062f, 0.038010f, 0.013364f, 0.000794f, 0.047923f, 0.006855f, 0.039813f, -0.019460f, 0.014580f, -0.008262f, 0.018525f, -0.005083f, 0.037193f, 0.060028f, -0.028917f, 0.109535f, 0.024341f, -0.026027f, 0.034010f, -0.031356f, -0.034640f, -0.038461f, -0.029936f, 0.009317f, 0.012096f, -0.007144f, 0.035533f, 0.066686f, 0.027796f, 0.013724f, -0.023399f, 0.077071f, -0.092369f, -0.008458f, -0.101196f, -0.023486f, -0.006288f, 0.027156f, -0.036461f, 0.092478f, 0.013297f, 0.056015f, 0.007755f, -0.001151f, -0.008122f, 0.009579f, -0.012987f, 0.029245f, -0.050865f, 0.037971f, -0.003417f, 0.063364f, 0.003164f, -0.042326f, -0.022586f, -0.011871f, 0.067366f, 0.037786f, -0.015825f, 0.011424f, 0.025565f, 0.001280f, -0.011012f, -0.020946f, 0.009196f, -0.002353f, 0.052250f, 0.030922f, 0.047104f, -0.004870f, -0.011604f, -0.001977f, -0.022039f, 0.011085f, 0.023684f, 0.033153f, -0.055019f, -0.027021f, -0.009300f, 0.083590f, 0.002541f, -0.054926f, 0.023127f, 0.023996f, -0.036135f, 0.042492f, 0.042736f, 0.006285f, 0.027287f, 0.005339f, -0.002797f, 0.011127f, -0.007600f, -0.008423f, -0.001438f, -0.047105f, 0.009074f, 0.008416f, -0.008571f, 0.026682f, -0.013002f, 0.043943f, 0.025242f, -0.027582f, -0.016952f, -0.022145f, 0.024521f, 0.002482f, -0.045429f, 0.014269f, 0.011582f, 0.017760f, 0.030493f, -0.004950f, -0.064719f, 0.028733f, -0.019192f, -0.053211f, 0.007922f, -0.030975f, -0.023814f, -0.034526f, -0.049379f, 0.040171f, 0.013229f, 0.025358f, 0.017145f, 0.026583f, -0.009319f, 0.000701f, 0.007220f, -0.022556f, -0.008510f, 0.041789f, -0.014656f, -0.058876f, -0.021557f, -0.002420f, 0.041907f, 0.002578f, 0.002906f, 0.042589f, -0.012666f, 0.002094f, -0.006988f, 0.020017f, -0.011905f, 0.049636f, -0.084649f, 0.029526f, 0.052155f, -0.034409f, -0.025762f, -0.005401f, 0.003813f, -0.005190f, -0.051537f, -0.038045f, -0.046393f, -0.015208f, 0.010807f, 0.029687f, 0.011492f, -0.034591f, 0.052483f, 0.011348f, 0.021999f, 0.016105f, -0.009712f, -0.033954f, 0.046991f, 0.046392f, 0.061209f, 0.023287f, 0.049550f, 0.026421f, -0.064773f, 0.028147f, -0.023285f, 0.002919f, 0.005200f, 0.047100f, -0.020145f, -0.013978f, 0.008915f, 0.000643f, 0.061975f, 0.029727f, 0.017411f, 0.017036f, -0.019783f, 0.035654f, -0.008785f, -0.049908f, 0.030982f, 0.062324f, 0.063536f, -0.023585f, 0.009367f, 0.058203f, 0.049801f, -0.019718f, 0.024340f, -0.000393f, 0.039284f, -0.013020f, 0.012213f, -0.012641f, 0.020728f, 0.003175f, 0.016720f, -0.027631f, -0.013236f, -0.039200f, -0.002848f, -0.024959f, -0.012746f, 0.004055f, 0.019094f, -0.044055f, -0.013468f, -0.000712f, -0.007909f, 0.018470f, 0.010372f, 0.058720f, -0.037720f, -0.006241f, -0.038396f, -0.032353f, -0.015150f, 0.018117f, -0.060986f, 0.033198f, -0.011967f, -0.002941f, 0.004729f, -0.009533f, -0.011282f, -0.049207f, 0.023814f, 0.005367f, 0.006348f, -0.003444f, -0.006542f, 0.054986f, 0.046478f, -0.006960f, -0.034797f, 0.010177f, -0.013966f, 0.002154f, -0.016172f, 0.015161f, 0.001301f, 0.006934f, 0.015422f, -0.049411f, -0.015273f, -0.004811f, -0.011858f, -0.024287f, 0.021462f, -0.044875f, -0.002109f, 0.072719f, -0.008486f, -0.006405f, 0.008772f, -0.058623f, 0.034569f, 0.012485f, 0.001196f, -0.008307f, 0.006180f, -0.001619f, -0.005397f, 0.017002f, 0.012970f, -0.010239f, 0.003270f, -0.043646f, 0.062088f, 0.006381f, 0.043331f, -0.062087f, 0.006518f, -0.032690f, 0.007951f, 0.014207f, -0.006027f, -0.001193f, 0.043092f, 0.007321f, -0.063784f, -0.004084f, -0.012809f, -0.008692f, 0.005605f, -0.010099f, -0.017997f, -0.020254f, -0.020167f, 0.010128f, -0.025271f, 0.011742f, 0.089030f, -0.014348f, -0.011925f, 0.017965f, -0.025236f, -0.020896f, 0.004001f, -0.000577f, 0.030706f, -0.003455f, -0.036123f, 0.001840f, 0.001849f, 0.000339f, 0.027951f, -0.043998f, 0.065553f, 0.120963f, 0.025049f, 0.012301f, -0.054155f, -0.035810f, 0.002193f, -0.058600f, -0.015467f, -0.014381f, -0.005102f, -0.018134f, -0.027382f, -0.067968f, -0.005845f, 0.005687f, 0.009699f, -0.074761f, 0.008466f, 0.003208f, 0.004054f, 0.020051f, 0.003643f, -0.003567f, 0.020028f, 0.042551f, -0.029535f, -0.053965f, 0.025487f, -0.003139f, -0.022863f, -0.001622f, 0.000627f, -0.024769f, -0.025474f, -0.033929f, -0.002206f, -0.005518f, 0.004500f, 0.021322f, 0.015898f, -0.053158f, -0.021362f, -0.070520f, -0.009163f, 0.002514f, 0.018670f, -0.018783f, 0.027328f, -0.019116f, 0.013146f, -0.022790f, 0.010423f, -0.007064f, -0.008710f, 0.048950f, 0.012263f, 0.045172f, 0.013188f, -0.023088f, 0.120531f, -0.031164f, 0.007675f, -0.008486f, 0.036528f, -0.017014f, 0.026056f, 0.039610f, 0.004011f, 0.004270f, -0.017196f, -0.061312f, 0.027765f, 0.044402f, 0.076896f, 0.012012f, -0.082497f, 0.019880f, 0.062785f, 0.036447f, -0.026863f, -0.065748f, -0.044932f, -0.027618f, 0.076424f, -0.007219f, -0.070348f, -0.015707f, 0.037913f, 0.001404f, 0.015164f, -0.028980f, 0.014319f, -0.065574f, 0.008781f, 0.024777f, 0.065136f, -0.083824f, -0.022935f, -0.036423f, 0.032058f, 0.008657f, 0.005346f, -0.018303f, -0.106427f, -0.009526f, -0.016342f, -0.076298f, -0.008562f, -0.088172f, 0.005964f, 0.049007f, -0.072672f, 0.020373f, 0.079565f, 0.013008f, 0.024959f, 0.007844f, 0.025680f, 0.015218f, 0.017307f, 0.053157f, 0.015988f, -0.001369f, 0.002341f, -0.033683f, -0.005382f, 0.007099f, -0.034722f, 0.066350f, -0.018377f, -0.027422f, 0.011424f, 0.032660f, -0.038072f, 0.011027f, -0.042671f, 0.029732f, -0.014216f, 0.026912f, 0.031605f, -0.011500f, -0.104367f, -0.074909f, -0.011179f, -0.117928f, 0.014935f, 0.019764f, 0.012623f, 0.005053f, -0.000437f, 0.074294f, 0.023166f, 0.043056f, -0.006903f, 0.058155f, -0.101136f, -0.004167f, -0.018246f, -0.063987f, 0.081267f, 0.049249f, -0.027389f, -0.035020f, -0.015925f, -0.024601f, -0.008506f, -0.024636f, -0.016445f, 0.125228f, 0.077016f, 0.074410f, -0.010014f, 0.128075f, -0.003051f, 0.019027f, 0.010288f, 0.034919f, -0.051841f, 0.039659f, -0.014950f, -0.005713f, -0.034958f, 0.031156f, 0.058704f, -0.030693f, -0.080053f, -0.033495f, -0.028996f, -0.048042f, -0.011960f, -0.028271f, 0.065852f, 0.031819f, -0.022776f, 0.044541f, -0.048234f, -0.045744f, 0.048402f, -0.008255f, 0.056553f, 0.078191f, -0.042403f, -0.061523f, -0.000395f, -0.015989f, 0.018296f, -0.010691f, -0.023175f, 0.114995f, -0.038846f, -0.025615f, 0.017736f, 0.003493f, 0.018967f, -0.070771f, 0.035573f, -0.033509f, -0.051550f, 0.052960f, 0.054101f, -0.012041f, -0.014177f, -0.002992f, -0.033021f, 0.019575f, 0.037702f, 0.037191f, -0.049229f, 0.026108f, 0.000137f, 0.005238f, 0.019083f, 0.003277f, -0.027748f, -0.055507f, 0.098748f, -0.021878f, 0.026167f, -0.056727f, -0.035612f, -0.035131f, 0.028920f, -0.020423f, -0.002907f, -0.015072f, 0.039471f, -0.018396f, 0.017085f, 0.040749f, 0.022310f, 0.028713f, -0.010258f, -0.001683f, -0.091419f, -0.012786f, -0.036368f, -0.060709f, -0.104870f, 0.039824f, -0.032539f, 0.027405f, -0.038236f, 0.011879f, -0.008191f, -0.030955f, -0.017094f, 0.041029f, -0.035621f, 0.021475f, -0.045477f, -0.036419f, 0.015209f, 0.091564f, -0.037909f, -0.018676f, 0.023491f, -0.061077f, -0.040024f, 0.009002f, -0.011526f, 0.048924f, 0.008817f, -0.075927f, 0.005479f, -0.110178f, -0.009046f, -0.020513f, -0.001423f, -0.055926f, 0.006051f, 0.002476f, 0.027534f, -0.051465f, -0.034731f, -0.005398f, -0.039895f, -0.015698f, -0.029178f, 0.004120f, 0.007947f, 0.008491f, -0.046033f, -0.029056f, -0.042098f, 0.035469f, 0.001866f, 0.020164f, -0.011845f, -0.027587f, 0.037322f, 0.007245f, 0.016816f, 0.013688f, -0.005159f, -0.115596f, 0.017946f, -0.012276f, 0.021659f, 0.001930f, 0.031310f, -0.002588f, -0.054545f, -0.056478f, -0.053248f, 0.000520f, -0.008027f, 0.045712f, 0.010229f, 0.019294f, -0.053055f, -0.005849f, -0.082157f, -0.040933f, 0.057755f, -0.000359f, -0.051950f, 0.015570f, -0.050651f, -0.017775f, -0.065144f, 0.010018f, 0.042727f, -0.046866f, -0.092104f, 0.004954f, -0.017395f, 0.012057f, 0.033893f, -0.059268f, 0.099150f, 0.082576f, -0.021925f, 0.030151f, 0.021072f, -0.072066f, 0.000794f, 0.008750f, 0.093015f, -0.004755f, -0.060643f, 0.011256f, -0.047654f, -0.069871f, -0.004033f, 0.018361f, 0.020122f, -0.031417f, 0.003069f, 0.012229f, 0.059031f, 0.016091f, -0.002075f, 0.012811f, 0.037627f, 0.029480f, 0.036811f, -0.070822f, 0.010575f, 0.029202f, -0.060607f, -0.014183f, -0.061341f, 0.004349f, -0.006235f, -0.032127f, 0.003776f, -0.011147f, 0.009664f, 0.023289f, 0.025664f, -0.004735f, -0.046699f, -0.093941f, -0.006066f, 0.024637f, 0.037500f, -0.030147f, -0.025830f, -0.001291f, 0.023945f, -0.024047f, 0.006065f, 0.009573f, -0.038489f, 0.098000f, 0.041473f, 0.047252f, 0.043897f, 0.079926f, 0.083719f, -0.016126f, -0.115213f, 0.001677f, 0.053434f, -0.004001f, -0.023159f, 0.073315f, 0.024758f, 0.040032f, -0.042958f, 0.048207f, 0.104451f, -0.025653f, -0.068164f, 0.022007f, 0.046002f, -0.063372f, 0.053807f, -0.052768f, 0.012487f, -0.035996f, -0.031946f, 0.031358f, -0.093962f, -0.175743f, 0.042575f, 0.048584f, 0.031992f, 0.033841f, -0.003607f, -0.038425f, -0.008265f, -0.026452f, -0.047159f, 0.049950f, 0.024250f, 0.098898f, 0.013054f, 0.003100f, -0.054083f, 0.015116f, 0.085443f, 0.017789f, 0.109031f, -0.120777f, 0.001797f, -0.020328f, 0.030749f, 0.054874f, -0.055722f, -0.011357f, -0.035785f, -0.092286f, -0.063734f, 0.017141f, -0.038826f, 0.092164f, -0.032247f, -0.008642f, -0.001334f, -0.007119f, 0.021049f, -0.026800f, -0.020359f, -0.038028f, -0.004765f, 0.031423f, -0.021032f, 0.090119f, 0.043488f, 0.015327f, -0.049312f, 0.035292f, -0.040772f, -0.002677f, 0.008840f, -0.017212f, 0.005951f, 0.029550f, -0.025579f, -0.011599f, -0.048168f, 0.019095f, -0.014882f, -0.015260f, 0.030365f, -0.055575f, 0.049355f, -0.005224f, 0.046065f, -0.039716f, 0.047055f, -0.060978f, -0.088648f, 0.026530f, -0.071030f, -0.003703f, 0.069627f, 0.002964f, -0.029796f, 0.008871f, -0.003094f, -0.024046f, 0.019481f, -0.076707f, -0.025960f, 0.029830f, 0.012346f, -0.032769f, 0.095679f, -0.029531f, -0.022216f, -0.186359f, -0.039588f, 0.106009f, 0.066653f, 0.054351f, -0.010482f, -0.030944f, -0.011941f, 0.003666f, -0.031458f, -0.006850f, 0.097606f, -0.054519f, 0.009504f, -0.044496f, -0.148899f, -0.057446f, 0.029368f, -0.037358f, 0.046670f, -0.001014f, -0.030884f, 0.033943f, -0.015414f, -0.056514f, 0.048635f, 0.085599f, -0.022685f, 0.013186f, -0.035012f, -0.021985f, 0.078322f, -0.035719f, -0.070747f, -0.021295f, -0.015007f, -0.100908f, -0.032155f, 0.015250f, 0.020093f, 0.012293f, -0.032519f, 0.007222f, -0.020025f, -0.008428f, 0.017048f, -0.047029f, -0.038502f, -0.027923f, -0.048826f, -0.022111f, 0.060167f, -0.012669f, -0.054244f, -0.018156f, -0.005131f, -0.014633f, 0.006109f, 0.032478f, -0.122359f, 0.027271f, -0.005531f, 0.032261f, -0.106706f, -0.014813f, 0.003876f, 0.016910f, 0.026011f, -0.066201f, -0.008188f, 0.057868f, -0.028327f, 0.021605f, -0.081478f, 0.018072f, -0.028003f, -0.001094f, -0.065657f, 0.037505f, 0.015353f, -0.096049f, -0.007965f, 0.003076f, -0.092396f, 0.048894f, 0.013247f, 0.015424f, 0.006502f, -0.044480f, 0.006243f, 0.019362f, 0.024374f, -0.002041f, 0.009392f, 0.023289f, -0.042594f, -0.020355f, 0.073944f, 0.056922f, 0.037900f, -0.022440f, -0.050596f, -0.040470f, -0.033684f, -0.002769f, 0.024472f, -0.028473f, -0.044287f, -0.022506f, 0.021415f, -0.080509f, -0.007270f, 0.012284f, 0.077324f, -0.029479f, -0.030789f, -0.045037f, 0.002071f, -0.023628f, -0.045893f, 0.084557f, -0.044550f, -0.025720f, -0.044203f, 0.087329f, -0.019778f, 0.032739f, 0.039917f, 0.024900f, 0.087950f, 0.013248f, 0.024925f, 0.081130f, 0.020908f, 0.026843f, -0.006563f, 0.098086f, -0.157377f, -0.023755f, -0.126545f, 0.017040f, -0.017272f, -0.040287f, 0.016819f, -0.019198f, -0.042612f, 0.031206f, -0.186404f, -0.035627f, 0.051920f, -0.014727f, 0.081986f, -0.025436f, 0.051042f, 0.026634f, -0.009045f, -0.034554f, -0.002489f, -0.005164f, 0.009908f, -0.056951f, -0.064597f, -0.042171f, -0.005252f, 0.012844f, -0.040625f, -0.023603f, -0.061198f, -0.002160f, -0.010611f, -0.097273f, -0.050537f, 0.009636f, -0.034227f, 0.000206f, 0.043286f, -0.091218f, -0.187909f, -0.178638f, -0.015717f, 0.059017f, -0.059919f, 0.089088f, -0.032361f, 0.011735f, -0.040593f, -0.008881f, 0.008009f, 0.046156f, -0.075415f, 0.099519f, -0.007816f, -0.028825f, 0.029815f, 0.076931f, 0.001567f, 0.084413f, -0.013055f, 0.006923f, 0.035642f, -0.050001f, -0.043847f, 0.018236f, 0.051266f, 0.029816f, 0.013808f, 0.008693f, -0.005001f, -0.016361f, -0.050880f, -0.059629f, 0.061756f, 0.033874f, 0.000495f, 0.048229f, -0.036792f, -0.084829f, 0.050693f, 0.021934f, 0.021327f, 0.011860f, 0.034446f, 0.052886f, 0.014353f, -0.069131f, -0.014411f, -0.028835f, -0.090327f, -0.018348f, 0.027949f, -0.000518f, -0.061617f, 0.041788f, 0.030066f, 0.080678f, -0.017258f, 0.014237f, -0.057927f, -0.051519f, 0.001550f, 0.028161f, -0.168475f, 0.007299f, 0.044653f, -0.105000f, 0.027950f, 0.024446f, -0.000876f, 0.127965f, -0.029169f, 0.000009f, 0.096516f, -0.001757f, 0.029343f, -0.007294f, -0.022262f, 0.081254f, -0.004080f, 0.007901f, -0.005588f, 0.037232f, 0.075838f, -0.017584f, 0.021154f, 0.014733f, -0.053527f, 0.006916f, -0.040206f, 0.040783f, 0.045103f, -0.047605f, -0.002834f, 0.019329f, -0.020252f, 0.038362f, -0.007091f, -0.042028f, -0.067809f, 0.019660f, -0.060016f, 0.011142f, 0.065594f, -0.042267f, 0.011161f, 0.094104f, -0.069203f, -0.066215f, -0.027831f, 0.095495f, 0.024534f, 0.069626f, 0.086397f, 0.059964f, -0.042533f, 0.025358f, -0.063409f, 0.002255f, 0.005951f, 0.090617f, 0.027367f, 0.052148f, 0.023849f, -0.041824f, 0.016318f, -0.003875f, 0.006730f, -0.028122f, 0.010922f, -0.008397f, -0.019231f, -0.035401f, -0.011455f, 0.022945f, 0.048348f, 0.047074f, 0.050155f, 0.087087f, -0.019907f, 0.026603f, 0.043814f, -0.010987f, -0.007245f, -0.058954f, -0.118578f, 0.043932f, -0.010628f, -0.014960f, 0.008039f, -0.085921f, 0.030606f, -0.030268f, 0.056994f, 0.009563f, 0.020754f, 0.003262f, -0.059830f, -0.021731f, -0.135498f, -0.018247f, 0.006015f, -0.004510f, 0.006469f, -0.039037f, 0.005049f, 0.044118f, -0.010275f, -0.100994f, 0.026978f, -0.095073f, -0.019808f, 0.024802f, 0.018355f, -0.067714f, -0.033148f, 0.030600f, 0.015342f, -0.106687f, -0.000938f, -0.026247f, 0.002256f, -0.051950f, -0.115404f, 0.005357f, -0.042422f, 0.029554f, -0.084895f, 0.062082f, 0.019665f, 0.015220f, -0.045346f, 0.046767f, 0.028210f, 0.068399f, 0.029929f, -0.016009f, 0.040230f, 0.025948f, -0.080656f, -0.089720f, -0.051449f, -0.019936f, -0.072887f, -0.018666f, 0.063953f, -0.046354f, -0.008698f, -0.035941f, 0.015726f, -0.022816f, -0.092484f, -0.000158f, 0.005846f, -0.020364f, -0.046853f, 0.075042f, 0.021751f, -0.053513f, -0.035946f, 0.005718f, -0.069427f, 0.115398f, -0.022449f, -0.023774f, -0.032947f, 0.143904f, 0.060748f, 0.027984f, 0.080303f, -0.076564f, 0.023683f, -0.001887f, -0.048604f, -0.062192f, -0.056823f, 0.011542f, 0.109526f, 0.089428f, 0.014360f, 0.054303f, -0.066013f, 0.028256f, 0.029805f, -0.026788f, 0.072150f, 0.073225f, -0.006945f, -0.075766f, -0.057224f, 0.071476f, 0.014424f, 0.045250f, -0.049495f, 0.007824f, 0.090240f, -0.049230f, 0.030087f, 0.040342f, 0.025712f, 0.085195f, 0.044595f, 0.033236f, -0.013498f, -0.001631f, 0.060851f, -0.004175f, -0.007840f, -0.069452f, -0.025530f, -0.027671f, 0.018145f, -0.032976f, 0.053067f, -0.025735f, -0.035141f, -0.034220f, -0.019096f, 0.028749f, 0.009358f, 0.000868f, 0.034363f, 0.006832f, -0.004896f, -0.061892f, 0.021983f, -0.010175f, 0.028056f, 0.079267f, 0.029026f, -0.061291f, -0.055218f, 0.075211f, -0.056226f, 0.016923f, -0.006343f, -0.005971f, -0.054909f, -0.012731f, -0.048566f, -0.004202f, -0.024457f, 0.011343f, 0.007729f, -0.082015f, -0.013403f, -0.021747f, 0.004455f, -0.023397f, -0.051589f, -0.006794f, -0.030392f, -0.057854f, 0.003979f, -0.098420f, -0.007855f, 0.008601f, 0.044782f, 0.109778f, -0.041723f, 0.023017f, -0.096403f, 0.021668f, 0.001673f, -0.012664f, -0.061759f, -0.024946f, 0.044976f, 0.034193f, -0.002811f, 0.034341f, 0.074763f, -0.006780f, -0.055092f, 0.042192f, -0.045864f, 0.041566f, -0.006134f, 0.024553f, 0.075070f, -0.006175f, 0.002569f, 0.032279f, -0.038023f, 0.024206f, 0.015964f, -0.024175f, 0.037819f, 0.017664f, 0.096811f, 0.113149f, -0.031383f, 0.015846f, -0.009228f, 0.085710f, 0.031010f, 0.017047f, -0.065872f, 0.018167f, -0.009630f, 0.040270f, -0.089919f, -0.023166f, 0.007755f, 0.003468f, -0.007605f, -0.041991f, -0.024826f, -0.003337f, 0.009706f, 0.065372f, -0.015360f, 0.048696f, 0.045011f, -0.063635f, -0.083594f, -0.066432f, 0.001118f, -0.028984f, 0.004269f, 0.008357f, 0.017933f, -0.021832f, -0.068540f, 0.046991f, 0.032948f, 0.039604f, -0.031853f, 0.073794f, 0.037370f, -0.021142f, -0.000893f, -0.087935f, -0.010257f, 0.033862f, -0.052666f, -0.040983f, 0.032499f, 0.071132f, -0.055016f, 0.010782f, 0.021662f, 0.006439f, 0.029261f, 0.128969f, 0.015404f, -0.060093f, 0.012499f, -0.103693f, 0.106970f, -0.025353f, -0.024117f, -0.043101f, 0.124777f, -0.002988f, -0.005243f, 0.023931f, 0.029772f, 0.030298f, 0.027554f, 0.014178f, -0.040480f, -0.058564f, 0.019141f, -0.013001f, 0.043958f, -0.059369f, -0.047693f, -0.040035f, -0.017808f, 0.003817f, 0.050165f, 0.008207f, 0.010527f, 0.034147f, 0.008772f, 0.017099f, 0.003474f, 0.002902f, -0.002759f, 0.013425f, 0.039643f, -0.022170f, -0.034315f, -0.047233f, 0.017941f, -0.029548f, 0.004098f, -0.037729f, 0.044021f, -0.023758f, 0.008749f, 0.031717f, 0.056688f, 0.072381f, -0.008378f, -0.017826f, -0.037298f, -0.009875f, 0.027318f, 0.030907f, 0.040625f, 0.069926f, 0.060844f, 0.020412f, 0.008938f, -0.011733f, 0.021827f, -0.012492f, 0.016692f, -0.026643f, 0.030552f, -0.078096f, 0.024597f, 0.026223f, -0.020596f, -0.021978f, 0.019312f, -0.017963f, 0.040882f, -0.017586f, 0.040455f, -0.037134f, 0.023209f, -0.028121f, 0.008922f, 0.035150f, -0.030175f, 0.050289f, 0.030788f, -0.020526f, -0.004250f, 0.096248f, -0.002766f, 0.023750f, -0.090968f, 0.018830f, -0.006368f, -0.037738f, -0.054410f, 0.064018f, 0.037985f, -0.020918f, 0.032367f, 0.026230f, -0.034227f, -0.004304f, 0.032122f, -0.048446f, -0.020248f, -0.048304f, 0.004495f, 0.040059f, -0.030792f, -0.002398f, 0.022706f, -0.048458f, 0.001768f, 0.064582f, -0.011625f, 0.007066f, -0.001925f, -0.021130f, 0.019496f, 0.015690f, 0.033348f, -0.027787f, -0.017709f, -0.028731f, -0.034258f, -0.033627f, -0.025268f, 0.039007f, 0.022810f, 0.019435f, 0.026533f, 0.042878f, -0.047993f, -0.019143f, -0.069065f, 0.009773f, -0.043838f, -0.031103f, 0.063943f, -0.012431f, 0.020484f, -0.028766f, -0.011632f, -0.047797f, -0.022644f, 0.042399f, -0.034374f, -0.015891f, 0.021686f, 0.050458f, -0.009460f, 0.036184f, 0.027214f, 0.015230f, -0.024992f, -0.003785f, -0.072433f, -0.009780f, 0.044397f, -0.046232f, 0.002605f, 0.079609f, 0.064189f, 0.001031f, -0.033094f, -0.008725f, -0.011161f, -0.056286f, -0.098361f, -0.044584f, -0.028932f, -0.046771f, -0.044274f, 0.065616f, 0.013554f, 0.014805f, -0.003166f, -0.015718f, -0.011757f, 0.007250f, -0.071758f, 0.030583f, -0.078654f, 0.071365f, -0.042862f, -0.001152f, -0.051903f, -0.016080f, -0.031859f, -0.020190f, 0.013790f, 0.011076f, 0.031156f, 0.027897f, 0.009072f, -0.002831f, 0.005187f, -0.034262f, 0.000024f, -0.031117f, -0.043267f, 0.045282f, 0.007475f, -0.013577f, -0.052594f, 0.058394f, 0.026362f, -0.057482f, 0.026647f, 0.017362f, 0.018592f, 0.018859f, 0.045608f, 0.032466f, 0.047855f, 0.030582f, 0.013691f, -0.026016f, 0.005399f, 0.029485f, -0.083344f, 0.030777f, 0.001706f, 0.017474f, 0.075638f, -0.002631f, -0.046976f, 0.018546f, -0.005455f, -0.002402f, -0.093282f, -0.016273f, -0.037951f, -0.045363f, -0.033148f, 0.056545f, -0.030914f, 0.101991f, 0.074640f, 0.005679f, 0.028225f, 0.079045f, 0.036611f, 0.012756f, 0.067365f, -0.040351f, -0.062081f, 0.037167f, 0.004926f, 0.031098f, 0.040011f, 0.026852f, -0.000592f, 0.002611f, -0.031167f, -0.024959f, 0.048083f, -0.032710f, -0.027970f, 0.038703f, -0.001690f, -0.034566f, 0.036749f, -0.037902f, 0.014152f, -0.000290f, 0.064004f, 0.005507f, -0.081175f, 0.034822f, -0.056273f, -0.043760f, -0.074189f, -0.022555f, -0.021714f, 0.006424f, -0.078783f, 0.044766f, -0.036842f, 0.047919f, -0.010488f, 0.009948f, -0.033836f, -0.047341f, 0.029174f, 0.012183f, 0.039654f, 0.008863f, -0.037980f, -0.018558f, -0.057270f, -0.041038f, -0.065650f, 0.100310f, 0.061747f, 0.022437f, 0.016889f, 0.069602f, 0.014240f, 0.022839f, 0.019398f, 0.052951f, -0.018842f, -0.009434f, 0.032277f, 0.033177f, -0.034598f, -0.009638f, -0.004295f, -0.005161f, 0.003762f, 0.019548f, -0.001056f, -0.034426f, 0.029592f, 0.004126f, -0.004194f, 0.012733f, 0.032092f, -0.029855f, -0.008326f, -0.000946f, -0.032193f, 0.001360f, 0.037703f, -0.014612f, 0.040579f, -0.020470f, -0.053151f, -0.018817f, 0.013550f, 0.002319f, -0.013748f, -0.033939f, 0.013567f, 0.038281f, 0.012930f, -0.036060f, -0.033505f, -0.115715f, 0.032235f, 0.063295f, -0.035034f, -0.038815f, 0.062387f, -0.018063f, -0.008037f, -0.010693f, -0.028372f, -0.045806f, -0.008248f, -0.032387f, 0.019799f, -0.036875f, -0.002705f, 0.057272f, 0.068388f, 0.034768f, 0.054523f, 0.020853f, -0.069376f, -0.023675f, 0.028899f, 0.038816f, -0.026974f, 0.081098f, 0.030829f, -0.007579f, 0.024550f, -0.019181f, 0.005911f, 0.024099f, -0.011696f, -0.014311f, 0.003210f, -0.027637f, 0.045933f, -0.007489f, 0.029026f, 0.039216f, -0.014527f, 0.023641f, -0.007292f, 0.009017f, 0.017663f, -0.034395f, 0.035348f, -0.046635f, 0.029112f, 0.024009f, 0.051979f, -0.019529f, -0.001197f, 0.051201f, 0.074478f, -0.010122f, -0.048154f, 0.015507f, -0.003119f, 0.029197f, 0.010678f, 0.046856f, -0.031632f, 0.050655f, 0.048332f, -0.015377f, -0.026789f, -0.056376f, 0.006228f, 0.032081f, 0.013064f, 0.021122f, 0.036248f, 0.000922f, -0.020906f, -0.075064f, -0.020969f, 0.046642f, -0.033803f, 0.018659f, 0.010204f, -0.000912f, -0.012444f, 0.007799f, -0.036694f, 0.010845f, 0.024121f, -0.016886f, 0.046379f, 0.001864f, -0.031219f, 0.045327f, -0.065707f, 0.007288f, 0.028223f, -0.043169f, 0.030232f, -0.031863f, -0.043940f, 0.016900f, -0.019149f, -0.040944f, 0.019005f, -0.002659f, 0.077712f, -0.042354f, -0.011249f, 0.012337f, 0.018120f, 0.002379f, 0.021479f, -0.013743f, -0.056480f, 0.004130f, 0.074457f, -0.007828f, 0.024720f, 0.049764f, -0.045658f, 0.000291f, 0.002970f, 0.020410f, 0.001977f, 0.017052f, 0.045990f, 0.050752f, -0.023569f, 0.050395f, -0.025796f, 0.027394f, 0.029395f, -0.007112f, 0.073013f, 0.050177f, 0.003210f, -0.045096f, 0.021431f, 0.031052f, -0.067517f, 0.054406f, 0.018753f, -0.009543f, 0.085018f, 0.003031f, 0.032939f, -0.014188f, 0.013989f, 0.019029f, -0.079871f, 0.015013f, 0.013644f, 0.018128f, -0.017405f, -0.021006f, 0.053216f, -0.005765f, 0.030856f, -0.006445f, 0.055354f, 0.029921f, 0.032274f, -0.017869f, 0.056419f, -0.019151f, -0.000564f, 0.024357f, 0.064832f, -0.011564f, 0.028271f, 0.041919f, 0.002335f, -0.012471f, -0.004600f, 0.010744f, -0.041824f, 0.003392f, 0.061429f, -0.050358f, 0.034516f, -0.019372f, -0.062127f, -0.037531f, -0.028880f, 0.037701f, 0.048109f, -0.002461f, 0.033651f, 0.019303f, 0.032233f, 0.033793f, 0.016718f, -0.016751f, -0.072325f, -0.069478f, 0.028499f, -0.036167f, 0.054332f, -0.046926f, 0.021190f, 0.033880f, 0.050034f, 0.030752f, -0.011246f, 0.026173f, -0.092041f, 0.025901f, 0.013407f, 0.060737f, 0.001840f, -0.022657f, 0.006415f, 0.004848f, 0.059337f, 0.033913f, 0.041393f, 0.086343f, -0.013339f, -0.011779f, 0.008679f, 0.009748f, -0.007228f, 0.054585f, -0.010998f, -0.013142f, -0.043431f, 0.012264f, -0.039090f, 0.035370f, -0.013923f, 0.025912f, 0.037357f, 0.093448f, -0.023462f, -0.018086f, 0.067822f, 0.051874f, -0.041579f, 0.020323f, 0.004341f, 0.028439f, 0.053542f, -0.016681f, 0.026946f, -0.017481f, 0.008150f, 0.057455f, 0.041430f, -0.001744f, 0.007235f, 0.011185f, 0.011091f, -0.006969f, -0.034301f, -0.093182f, -0.022071f, -0.003768f, -0.008209f, 0.017520f, 0.001054f, -0.006971f, -0.022733f, -0.024830f, 0.019314f, -0.053703f, 0.079099f, -0.003000f, 0.024032f, 0.070295f, -0.012665f, -0.070031f, -0.015731f, -0.012364f, -0.043116f, 0.022496f, 0.044796f, -0.003169f, -0.047054f, -0.002260f, 0.054024f, -0.017057f, 0.023995f, -0.034090f, -0.075556f, -0.007743f, 0.001676f, -0.062932f, 0.010251f, 0.015900f, -0.003203f, -0.014921f, 0.018912f, -0.049985f, 0.025687f, 0.022238f, 0.045809f, 0.000525f, 0.008871f, -0.011787f, -0.032816f, -0.003623f, 0.021880f, -0.001822f, -0.001780f, 0.094660f, 0.027912f, 0.070648f, 0.015195f, 0.019762f, -0.031617f, -0.024984f, -0.029281f, -0.045129f, -0.028707f, -0.024797f, 0.046111f, 0.045594f, -0.013250f, 0.052304f, 0.000088f, -0.022541f, 0.017427f, -0.016959f, -0.004511f, -0.001491f, -0.021087f, -0.020882f, 0.019911f, 0.015934f, 0.032819f, 0.039145f, -0.024751f, 0.059783f, -0.057257f, 0.019571f, 0.051514f, 0.015830f, 0.034721f, 0.052036f, 0.006243f, -0.057732f, -0.037813f, -0.035515f, -0.014787f, -0.034524f, -0.039683f, -0.005567f, -0.006935f, 0.016954f, 0.002604f, -0.085197f, -0.004538f, 0.008496f, 0.040673f, -0.006981f, 0.003406f, -0.002105f, -0.035904f, -0.015556f, 0.046162f, -0.052114f, 0.008790f, 0.045108f, -0.008456f, 0.038655f, -0.074220f, 0.036874f, 0.092671f, -0.007820f, 0.043891f, -0.022897f, 0.003993f, 0.080393f, -0.017179f, 0.017788f, -0.027725f, -0.014086f, 0.031078f, 0.004790f, 0.007088f, 0.047759f, 0.038609f, 0.064259f, -0.066350f, -0.084684f, -0.004033f, 0.066108f, 0.016714f, -0.036526f, -0.060918f, -0.055669f, 0.048824f, -0.002329f, 0.030615f, 0.015318f, -0.012739f, -0.031561f, 0.003907f, -0.054519f, 0.047029f, -0.010028f, 0.033456f, 0.029838f, 0.009626f, 0.001887f, 0.023616f, 0.013629f, 0.015833f, -0.050989f, 0.022473f, 0.018741f, 0.009221f, 0.026701f, -0.015615f, 0.022151f, -0.011319f, -0.106887f, -0.050533f, 0.007655f, 0.043784f, 0.001140f, -0.016072f, 0.003230f, -0.079269f, 0.012026f, 0.016886f, -0.025720f, -0.000024f, -0.019800f, -0.014469f, -0.002345f, 0.018823f, 0.032168f, -0.035267f, 0.013945f, 0.066393f, 0.023117f, 0.014956f, 0.002517f, 0.039651f, -0.015829f, 0.025094f, -0.036417f, 0.076252f, -0.047736f, 0.038568f, 0.033780f, 0.044808f, -0.016898f, -0.008775f, 0.039473f, -0.023697f, -0.034617f, -0.007431f, -0.029352f, 0.078045f, -0.031878f, 0.013768f, 0.037265f, 0.056508f, 0.036643f, -0.007539f, 0.023412f, 0.039382f, -0.038327f, 0.042287f, 0.073889f, -0.014638f, 0.049139f, -0.027666f, -0.031371f, -0.060140f, 0.019336f, -0.014260f, 0.055736f, -0.133424f, 0.030645f, 0.038488f, -0.039151f, 0.015134f, 0.036008f, 0.037714f, 0.023523f, -0.088966f, 0.048320f, -0.018293f, -0.009372f, 0.003561f, 0.085066f, 0.074758f, -0.017373f, 0.015840f, 0.025281f, 0.009757f, -0.073306f, 0.038892f, -0.038819f, 0.035204f, -0.010283f, 0.069123f, -0.019422f, -0.011212f, 0.007870f, 0.008691f, -0.024529f, -0.005206f, 0.004463f, 0.031710f, 0.001214f, 0.031987f, 0.000027f, 0.024944f, -0.042187f, -0.039484f, 0.018525f, 0.023312f, 0.014118f, 0.031176f, -0.015362f, -0.002649f, -0.066258f, -0.023261f, 0.020540f, -0.061001f, 0.045001f, -0.018685f, 0.019433f, 0.002164f, -0.040093f, 0.105771f, -0.020718f, 0.035937f, -0.042494f, 0.072903f, -0.032877f, -0.025880f, -0.031471f, -0.046119f, -0.022358f, -0.000228f, -0.028820f, -0.043113f, 0.022338f, -0.048927f, 0.007015f, 0.017257f, 0.032490f, 0.019072f, 0.008177f, 0.001299f, 0.010209f, -0.050097f, -0.030572f, -0.019231f, 0.010685f, 0.032443f, -0.122061f, -0.008365f, -0.020206f, 0.090095f, 0.015013f, -0.011220f, -0.028040f, 0.000880f, -0.031810f, 0.064418f, -0.036410f, -0.002689f, -0.079206f, -0.009541f, -0.018187f, -0.014253f, 0.009683f, -0.011799f, 0.075403f, 0.050944f, -0.043151f, 0.006935f, 0.011618f, 0.004236f, 0.007864f, -0.022573f, -0.008070f, -0.020656f, -0.033076f, -0.018725f, -0.022436f, 0.005708f, -0.079741f, 0.001952f, 0.037859f, 0.023311f, 0.013610f, -0.001885f, 0.008762f, 0.010385f, -0.048367f, 0.025539f, -0.028834f, 0.014113f, 0.022359f, 0.050122f, 0.050285f, -0.024018f, 0.018786f, -0.041911f, -0.011722f, 0.025946f, 0.033301f, -0.033686f, 0.066763f, 0.001572f, 0.012047f, 0.002507f, 0.035438f, -0.020677f, 0.016109f, -0.026849f, -0.040491f, -0.010229f, -0.050257f, -0.034552f, -0.022167f, 0.049698f, -0.060485f, 0.032577f, -0.041539f, 0.059601f, -0.000255f, 0.048946f, 0.015058f, 0.012245f, 0.059776f, 0.014622f, 0.041391f, -0.031797f, 0.010816f, 0.020224f, -0.019674f, -0.026257f, -0.020692f, -0.053728f, -0.048045f, 0.076122f, 0.000350f, 0.001341f, -0.032385f, -0.032857f, 0.104500f, 0.021226f, -0.044826f, 0.015412f, 0.038289f, -0.041203f, 0.028015f, -0.032720f, 0.025490f, -0.055244f, 0.016423f, -0.008871f, -0.031491f, -0.006789f, 0.000167f, 0.047481f, 0.035508f, 0.063589f, -0.022392f, -0.032173f, -0.004045f, -0.004459f, 0.068438f, 0.052051f, 0.014372f, -0.039222f, 0.071775f, -0.046671f, 0.042976f, -0.006992f, -0.027356f, -0.010437f, 0.036654f, 0.001909f, 0.008857f, -0.074782f, -0.009545f, -0.033571f, 0.002377f, -0.007305f, -0.019419f, 0.072899f, 0.003272f, 0.009809f, -0.057695f, -0.008541f, 0.063280f, -0.013557f, 0.088574f, -0.009421f, 0.083933f, -0.002505f, -0.032520f, 0.008523f, 0.045745f, -0.025692f, 0.074857f, 0.017928f, 0.026014f, 0.024552f, -0.037190f, 0.046572f, -0.070030f, 0.010934f, 0.026765f, 0.013379f, -0.027377f, 0.016694f, -0.004189f, 0.030780f, -0.039429f, 0.052598f, 0.027071f, -0.104633f, 0.096748f, 0.037912f, 0.011668f, 0.039928f, 0.075076f, -0.091844f, -0.004363f, 0.059417f, 0.009111f, -0.047175f, 0.069831f, 0.089142f, -0.025601f, -0.049284f, 0.042249f, -0.022516f, 0.044949f, -0.117591f, 0.053049f, -0.093204f, 0.024850f, 0.039230f, -0.014115f, 0.011007f, 0.013269f, 0.032936f, -0.080815f, 0.020793f, -0.071649f, 0.007059f, -0.167587f, 0.005044f, -0.029453f, -0.054089f, 0.002076f, 0.002600f, 0.019179f, 0.026634f, 0.005568f, 0.008629f, -0.014914f, -0.038079f, 0.030756f, 0.025342f, 0.001533f, 0.076903f, -0.008233f, -0.008033f, -0.047817f, -0.069086f, 0.055640f, -0.042219f, 0.016939f, 0.021339f, -0.071565f, -0.006646f, 0.028354f, -0.002359f, -0.045846f, -0.021001f, 0.002647f, 0.012273f, 0.004336f, -0.065034f, 0.000852f, -0.006844f, -0.016956f, 0.014510f, 0.005962f, 0.054679f, 0.007907f, -0.004089f, 0.089762f, 0.013975f, -0.034352f, 0.131562f, -0.005088f, 0.046776f, -0.005692f, -0.043069f, 0.039378f, -0.041018f, -0.037872f, 0.099204f, 0.022193f, 0.028774f, -0.013921f, 0.030761f, 0.022534f, -0.099482f, 0.013086f, -0.122862f, 0.092017f, 0.021867f, 0.066924f, -0.027418f, 0.015461f, 0.064386f, -0.080817f, -0.028459f, 0.025310f, 0.002509f, 0.113076f, 0.140018f, 0.029947f, -0.055600f, 0.063411f, -0.021447f, 0.047723f, 0.038923f, 0.047324f, -0.004081f, -0.013475f, -0.017347f, -0.006784f, 0.007974f, 0.033746f, 0.026470f, -0.005631f, 0.030802f, -0.020997f, 0.030899f, 0.044899f, -0.080113f, 0.000531f, 0.004081f, 0.084537f, -0.085094f, 0.089213f, 0.057779f, 0.023892f, 0.099401f, -0.053473f, -0.051534f, 0.048791f, -0.102282f, 0.055981f, 0.100501f, -0.005758f, -0.018323f, 0.036762f, 0.000098f, 0.065323f, 0.068134f, 0.015925f, -0.010774f, 0.008295f, -0.034802f, 0.068986f, -0.061078f, 0.054996f, 0.025258f, 0.016457f, 0.076173f, 0.078530f, -0.005877f, -0.040630f, 0.112765f, 0.023583f, -0.013162f, -0.082727f, 0.096797f, 0.037765f, -0.035909f, -0.075107f, -0.056318f, 0.036340f, 0.008717f, 0.000847f, -0.010801f, -0.000635f, -0.022003f, -0.131468f, 0.029480f, 0.038775f, 0.029968f, 0.046202f, 0.021546f, 0.044153f, -0.073985f, 0.030941f, -0.027447f, -0.012102f, -0.112223f, 0.113639f, -0.008132f, 0.070584f, -0.048486f, -0.001144f, 0.127987f, 0.058934f, 0.051303f, -0.041836f, 0.042971f, 0.042002f, 0.036810f, 0.048861f, -0.038553f, -0.002381f, 0.039699f, 0.039470f, -0.035292f, -0.059317f, 0.054928f, 0.050981f, 0.026446f, -0.065063f, -0.062093f, 0.024952f, -0.014330f, 0.003662f, -0.006235f, 0.013821f, 0.029075f, 0.023999f, 0.115747f, -0.261650f, -0.006988f, -0.006454f, 0.061537f, -0.041122f, 0.062769f, 0.042175f, -0.054957f, -0.004352f, 0.047980f, -0.156802f, -0.017623f, -0.002465f, 0.064634f, 0.087208f, -0.058527f, -0.073036f, -0.015471f, 0.013302f, -0.022087f, 0.042935f, 0.008914f, 0.015313f, 0.053136f, 0.008100f, 0.003552f, 0.098547f, 0.041039f, 0.017942f, 0.030508f, -0.108235f, -0.044752f, -0.165521f, 0.006669f, -0.011987f, 0.044381f, 0.134020f, -0.066398f, 0.013074f, 0.041403f, 0.060025f, -0.187761f, -0.025384f, 0.042074f, -0.026990f, 0.061235f, 0.029997f, -0.047261f, -0.050200f, 0.005927f, 0.009124f, 0.111636f, 0.000038f, 0.003125f, 0.051931f, -0.035389f, -0.040742f, 0.037751f, 0.032599f, 0.031399f, 0.050656f, 0.070500f, -0.004412f, 0.028648f, 0.033943f, 0.050823f, 0.076889f, -0.004216f, 0.143660f, -0.034167f, -0.006148f, -0.059851f, 0.045386f, -0.025869f, -0.074559f, 0.003735f, 0.023498f, -0.078290f, -0.050020f, -0.028473f, 0.218679f, 0.001195f, -0.022514f, -0.009842f, 0.031781f, -0.000801f, 0.015271f, -0.003380f, -0.009696f, -0.007433f, -0.088345f, 0.007808f, 0.018074f, -0.037131f, 0.017459f, -0.036158f, -0.074105f, 0.050525f, -0.002704f, 0.022617f, -0.004156f, -0.000408f, -0.049577f, -0.002590f, 0.004676f, 0.026357f, 0.036372f, -0.025981f, -0.096925f, -0.025416f, -0.038895f, -0.003805f, -0.078099f, 0.006126f, -0.002477f, 0.048451f, 0.013547f, -0.005304f, -0.008254f, -0.088193f, 0.017410f, 0.048320f, -0.012375f, -0.029262f, -0.070650f, -0.018623f, 0.000034f, -0.069428f, -0.008573f, -0.028640f, -0.050252f, 0.179445f, 0.042065f, -0.181998f, 0.071387f, 0.012215f, 0.006134f, -0.080830f, -0.032417f, 0.032210f, -0.020212f, 0.002611f, 0.038907f, 0.089057f, 0.031143f, 0.000711f, 0.062938f, 0.007434f, 0.005414f, 0.015872f, 0.017280f, -0.040141f, 0.068854f, 0.094527f, -0.036146f, -0.027739f, -0.008301f, -0.048205f, -0.005576f, 0.058205f, -0.086971f, 0.039681f, 0.030618f, 0.052136f, -0.025346f, 0.023119f, -0.008469f, -0.009526f, 0.009432f, -0.048854f, 0.019871f, 0.079641f, 0.054696f, -0.010657f, 0.019999f, -0.061021f, 0.069033f, 0.087546f, 0.015330f, -0.056843f, -0.014657f, 0.048649f, 0.010068f, -0.055541f, 0.042345f, -0.040127f, -0.015650f, 0.019518f, -0.002946f, 0.045535f, 0.037143f, 0.043564f, 0.015217f, 0.003682f, 0.020828f, 0.012922f, 0.053143f, 0.002239f, 0.045276f, -0.036007f, 0.005694f, 0.025587f, -0.008691f, 0.039079f, -0.009564f, 0.057347f, -0.022504f, 0.042243f, 0.004489f, 0.075898f, 0.088185f, 0.020857f, 0.002758f, -0.073924f, 0.032609f, -0.034937f, 0.020086f, -0.000537f, 0.011527f, 0.005023f, 0.018924f, -0.019450f, -0.041284f, -0.066401f, 0.020677f, 0.025508f, -0.000573f, 0.061710f, 0.042845f, 0.004995f, -0.010319f, 0.105815f, -0.016311f, 0.018599f, -0.016278f, 0.012500f, -0.012188f, 0.080405f, -0.116010f, -0.013070f, -0.078354f, 0.003978f, 0.069510f, -0.012383f, 0.072134f, -0.045322f, 0.118889f, -0.020037f, -0.005086f, 0.003020f, 0.000457f, -0.100998f, 0.034075f, -0.052089f, -0.017617f, 0.148364f, 0.004735f, -0.010876f, 0.006649f, -0.015241f, -0.061998f, -0.005826f, 0.029677f, -0.056388f, -0.026537f, 0.061992f, -0.020400f, 0.070723f, -0.020521f, 0.096313f, -0.021122f, 0.037257f, -0.017581f, -0.013437f, 0.003411f, 0.025061f, 0.021677f, -0.026657f, 0.014209f, -0.090377f, 0.014693f, -0.026442f, 0.011618f, -0.032950f, 0.041996f, -0.082770f, -0.023497f, 0.038033f, -0.114043f, 0.023954f, 0.063049f, 0.007320f, 0.037190f, 0.034075f, -0.027793f, -0.028662f, -0.035825f, -0.069162f, -0.097256f, 0.081792f, 0.023968f, 0.021352f, 0.012898f, 0.084047f, 0.004484f, -0.046513f, -0.010113f, 0.034805f, -0.050357f, -0.029943f, 0.009626f, 0.023891f, -0.014857f, 0.036931f, -0.040158f, -0.025209f, -0.015840f, 0.032693f, -0.006086f, -0.026787f, 0.037991f, -0.098445f, 0.011842f, -0.016180f, 0.037684f, -0.001151f, -0.025713f, -0.040836f, 0.076680f, -0.035767f, 0.027264f, -0.032412f, -0.003939f, -0.080908f, -0.058684f, 0.008939f, -0.007668f, 0.078403f, -0.041548f, 0.014548f, 0.025084f, 0.031364f, -0.029595f, 0.132156f, 0.014024f, -0.030322f, 0.015205f, 0.062909f, 0.024530f, -0.003289f, -0.065780f, 0.017856f, -0.027663f, 0.043952f, 0.043594f, -0.024366f, 0.013398f, 0.031837f, 0.044775f, -0.023446f, -0.011717f, -0.067402f, -0.023229f, -0.019260f, 0.099328f, 0.020707f, -0.066770f, 0.002400f, -0.021459f, -0.005878f, -0.020638f, 0.009155f, 0.048973f, -0.000335f, -0.002165f, 0.029789f, 0.078201f, 0.067721f, -0.006675f, 0.024754f, -0.049188f, 0.043970f, -0.091357f, 0.049344f, 0.026013f, 0.026689f, 0.040433f, 0.079958f, -0.029244f, -0.049638f, -0.026602f, 0.087392f, 0.014907f, -0.086139f, -0.038806f, -0.004149f, -0.007848f, 0.008286f, -0.072252f, -0.024203f, 0.002762f, -0.060946f, -0.018789f, -0.042095f, -0.030135f, -0.035412f, -0.064276f, -0.016467f, -0.009876f, -0.031220f, 0.055560f, -0.037253f, 0.030034f, 0.069042f, 0.007912f, -0.065044f, -0.038277f, -0.061495f, -0.037016f, -0.022304f, 0.011593f, -0.002856f, -0.002054f, -0.013765f, 0.016330f, 0.047763f, -0.003912f, 0.006740f, 0.068957f, -0.070177f, 0.057509f, -0.013204f, -0.026817f, 0.024883f, -0.004166f, -0.018469f, 0.028317f, -0.067870f, 0.038160f, -0.025042f, -0.042814f, 0.012624f, -0.030709f, 0.027921f, 0.023038f, 0.003568f, -0.043576f, 0.004606f, 0.010353f, 0.063269f, -0.055259f, -0.061462f, 0.010438f, 0.020779f, -0.037573f, 0.015038f, 0.017097f, -0.044079f, 0.060031f, 0.020243f, -0.105737f, -0.010758f, 0.113294f, 0.027849f, -0.068843f, -0.040809f, -0.007240f, -0.006273f, -0.005241f, 0.018713f, -0.002808f, -0.026479f, -0.056533f, 0.053058f, 0.012437f, 0.025335f, 0.054571f, 0.039877f, 0.048397f, -0.094067f, 0.023548f, -0.020797f, 0.028134f, 0.022800f, -0.095935f, -0.014927f, -0.037253f, 0.074175f, 0.066717f, -0.062455f, 0.036019f, 0.016128f, -0.027638f, 0.012774f, 0.037352f, 0.040919f, 0.026308f, 0.002871f, -0.036845f, -0.009501f, -0.045204f, 0.101032f, 0.132153f, -0.020204f, -0.065405f, -0.034783f, 0.061003f, -0.009000f, -0.007173f, 0.064798f, -0.006469f, 0.024269f, -0.045692f, -0.007372f, -0.044612f, -0.024768f, -0.006666f, 0.014769f, 0.002445f, 0.064408f, 0.031038f, 0.036552f, 0.071025f, -0.013737f, 0.009618f, 0.041629f, 0.014310f, -0.051485f, -0.051218f, 0.035185f, 0.048061f, 0.001835f, -0.005426f, -0.057151f, 0.052306f, -0.010700f, 0.014397f, -0.048410f, -0.032342f, -0.045152f, -0.019459f, -0.011941f, -0.013670f, -0.026249f, 0.020295f, -0.005263f, -0.022336f, 0.013205f, 0.008386f, -0.062085f, -0.049793f, 0.015373f, 0.009812f, 0.004189f, 0.022019f, 0.009030f, 0.037051f, -0.013077f, 0.005253f, -0.039458f, 0.103585f, 0.008513f, 0.037311f, 0.052979f, 0.009970f, 0.018999f, 0.050812f, 0.021367f, -0.050034f, 0.021439f, -0.023490f, 0.053757f, 0.033915f, 0.102330f, 0.005721f, -0.077748f, -0.022331f, -0.023977f, -0.007052f, -0.039563f, 0.034851f, 0.088166f, -0.032916f, 0.011976f, 0.038502f, -0.003883f, -0.003319f, -0.001086f, 0.003186f, -0.038482f, 0.085994f, -0.018068f, -0.023083f, -0.020909f, 0.020285f, 0.082384f, 0.033555f, 0.075277f, -0.055436f, -0.015939f, 0.009368f, 0.030884f, -0.021412f, -0.002700f, -0.007076f, 0.055945f, -0.039651f, 0.059659f, 0.008595f, -0.057136f, 0.041596f, -0.014759f, 0.087935f, 0.024058f, 0.057340f, -0.026790f, 0.062445f, 0.134618f, -0.078540f, 0.044372f, 0.008660f, 0.012590f, 0.019325f, -0.026343f, 0.036869f, -0.003851f, 0.020510f, 0.040076f, -0.055072f, -0.013741f, -0.032797f, -0.022217f, 0.041437f, -0.007299f, 0.040648f, -0.003524f, -0.007306f, 0.055237f, 0.053304f, 0.061848f, -0.058362f, 0.082502f, 0.031103f, -0.024995f, -0.060665f, 0.036242f, 0.000915f, -0.031038f, 0.041641f, 0.030585f, 0.028214f, -0.037023f, 0.056406f, 0.005667f, 0.051017f, 0.030612f, 0.022435f, -0.020858f, -0.021546f, -0.012924f, -0.040523f, 0.015733f, 0.070951f, 0.061514f, 0.028714f, 0.024462f, -0.018012f, -0.159475f, 0.069542f, 0.003122f, 0.066412f, -0.007908f, 0.006893f, 0.042460f, -0.018150f, 0.065443f, 0.026763f, 0.088391f, 0.060344f, 0.028004f, 0.040195f, -0.029963f, -0.012963f, 0.063090f, 0.054524f, 0.034511f, -0.056273f, 0.012592f, 0.017474f, -0.006516f, 0.027455f, -0.002670f, 0.015022f, -0.032245f, -0.001838f, -0.035247f, -0.000492f, -0.018787f, 0.074617f, 0.047933f, -0.085778f, 0.004614f, -0.009588f, -0.026614f, -0.004094f, 0.070291f, -0.016985f, 0.007849f, 0.080689f, 0.016348f, 0.009896f, 0.021061f, -0.024816f, -0.025993f, 0.016664f, -0.025643f, -0.031463f, 0.001793f, 0.015273f, -0.082895f, -0.007097f, -0.007003f, 0.021689f, 0.010579f, -0.008365f, -0.018259f, -0.005350f, -0.010208f, 0.021922f, 0.060470f, -0.002092f, 0.026883f, -0.093766f, -0.032538f, 0.047077f, -0.017649f, 0.024989f, 0.169640f, 0.019457f, -0.028759f, 0.039021f, -0.073246f, 0.004708f, 0.052890f, -0.069067f, 0.047906f, 0.116905f, -0.043169f, -0.055295f, 0.010643f, 0.033039f, 0.050190f, 0.025866f, 0.048261f, -0.038639f, 0.009308f, 0.121508f, -0.020648f, 0.007853f, -0.029459f, 0.001266f, 0.044159f, -0.003897f, 0.012946f, 0.001769f, 0.035143f, 0.161707f, 0.051580f, 0.173064f, 0.036863f, 0.019706f, -0.048437f, -0.101418f, -0.023208f, 0.098786f, -0.023295f, -0.028735f, -0.023535f, 0.033017f, -0.081372f, 0.014272f, 0.009094f, -0.042877f, -0.006901f, -0.057267f, 0.044168f, -0.000674f, 0.029520f, -0.011162f, 0.050377f, -0.014310f, 0.018831f, 0.009381f, -0.030297f, -0.003857f, -0.018359f, -0.013594f, 0.079499f, 0.001833f, 0.000337f, 0.047443f, 0.069445f, -0.034847f, -0.009651f, -0.019808f, -0.026698f, 0.016513f, -0.035024f, -0.020467f, 0.022063f, 0.106614f, 0.018280f, -0.000220f, -0.045407f, 0.000139f, 0.013747f, -0.008632f, 0.022012f, -0.013578f, 0.029596f, 0.007692f, 0.105359f, -0.013144f, 0.003198f, 0.009246f, -0.014741f, -0.046602f, 0.053345f, 0.059267f, 0.014419f, -0.017327f, 0.021106f, -0.023213f, 0.075035f, -0.041244f, 0.032661f, 0.065418f, -0.059618f, -0.041453f, -0.061590f, -0.024394f, 0.074250f, -0.032726f, -0.024537f, -0.018411f, -0.048900f, -0.015532f, 0.026908f, -0.029153f, 0.041115f, -0.028378f, -0.025848f, -0.049293f, -0.047566f, 0.086939f, 0.032582f, -0.072532f, -0.033956f, 0.033553f, 0.057438f, 0.005275f, -0.002106f, 0.061440f, 0.022348f, 0.056007f, -0.024741f, 0.055263f, 0.064126f, 0.004394f, 0.045091f, -0.011478f, -0.043215f, -0.104707f, -0.011534f, -0.087480f, 0.099430f, -0.116606f, 0.093331f, -0.054751f, -0.004810f, -0.010127f, -0.028736f, 0.010303f, -0.045090f, -0.006002f, 0.071198f, -0.009732f, 0.003060f, -0.108613f, -0.038661f, -0.016674f, 0.008044f, 0.040697f, -0.041398f, -0.003986f, -0.010054f, 0.024780f, 0.066937f, 0.002168f, 0.039826f, 0.061449f, 0.035982f, -0.013373f, 0.022971f, -0.045325f, 0.039983f, 0.038387f, -0.048505f, -0.019230f, -0.087591f, -0.035891f, -0.070576f, -0.048439f, 0.075666f, -0.043762f, -0.068669f, 0.009877f, 0.010059f, 0.040001f, -0.065986f, -0.056721f, 0.055550f, 0.023488f, -0.078549f, 0.005129f, 0.092079f, -0.016261f, 0.054407f, -0.038509f, -0.053906f, 0.004388f, -0.085001f, 0.061541f, -0.019264f, -0.017646f, 0.001919f, -0.005722f, -0.077129f, 0.046300f, 0.031609f, -0.052062f, 0.005827f, -0.017588f, 0.059840f, 0.066315f, -0.128158f, 0.019543f, -0.009027f, -0.085530f, 0.005925f, 0.087318f, 0.078133f, 0.033884f, 0.034444f, -0.042657f, -0.043057f, -0.015911f, -0.058860f, 0.024825f, -0.006824f, 0.012784f, -0.018445f, -0.041824f, 0.020537f, -0.038240f, 0.034964f, 0.055674f, -0.131769f, 0.015366f, -0.034521f, 0.050086f, -0.015019f, -0.034682f, -0.089479f, 0.006979f, -0.010656f, -0.078464f, -0.019429f, -0.012451f, 0.055867f, 0.036341f, -0.017303f, -0.104830f, 0.071374f, -0.064326f, -0.069084f, -0.007812f, -0.074877f, 0.037153f, 0.019731f, -0.068039f, -0.074636f, -0.047689f, -0.181774f, -0.101623f, 0.013926f, 0.027969f, -0.062824f, 0.083164f, -0.036218f, -0.006011f, 0.004354f, -0.017788f, 0.055167f, -0.032927f, -0.033209f, 0.074422f, 0.025905f, 0.026486f, -0.026141f, 0.062883f, -0.037876f, -0.007059f, 0.015775f, -0.090093f, -0.005455f, 0.022908f, 0.136183f, 0.112857f, -0.000024f, 0.024158f, 0.094379f, 0.002423f, 0.029403f, 0.003443f, -0.012778f, 0.012559f, -0.027677f, -0.122655f, -0.027104f, -0.006970f, 0.010502f, -0.000514f, -0.051521f, -0.030813f, -0.042442f, -0.030190f, 0.015898f, 0.062184f, -0.057039f, 0.076010f, -0.023408f, 0.000115f, 0.037999f, -0.029086f, -0.055320f, -0.015232f, 0.072135f, -0.119395f, 0.045031f, 0.123782f, 0.004524f, -0.026760f, 0.062439f, -0.022610f, -0.031642f, 0.015786f, 0.029880f, -0.021015f, 0.007849f, 0.016416f, 0.017579f, -0.004151f, 0.010511f, 0.089349f, 0.091270f, 0.033838f, 0.072642f, 0.010759f, 0.036663f, -0.022939f, -0.009061f, -0.027908f, -0.010518f, 0.003643f, 0.018498f, -0.060588f, 0.008295f, 0.020844f, -0.080485f, 0.067409f, -0.032277f, 0.071238f, -0.025639f, 0.007077f, -0.031697f, 0.002362f, -0.083173f, 0.006310f, 0.094409f, -0.051832f, -0.071710f, -0.004631f, 0.054963f, -0.045505f, 0.005055f, 0.045174f, 0.090020f, 0.008277f, -0.097816f, -0.015504f, -0.141152f, -0.000065f, 0.014977f, -0.042950f, 0.020196f, 0.016124f, -0.041114f, 0.007800f, -0.047916f, 0.076059f, 0.023401f, -0.005623f, -0.020570f, 0.001749f, -0.114514f, 0.006074f, 0.031734f, -0.077503f, 0.031132f, -0.076093f, 0.026350f, 0.018735f, -0.021429f, -0.005822f, -0.003777f, 0.003724f, 0.021659f, -0.014374f, 0.036010f, -0.037375f, -0.007772f, -0.029354f, 0.004911f, -0.045470f, 0.029073f, -0.016043f, -0.012464f, 0.040186f, -0.016708f, -0.014194f, -0.047658f, -0.012081f, 0.024916f, 0.002478f, 0.079815f, 0.074881f, -0.017122f, -0.022744f, 0.006556f, 0.025412f, 0.027451f, 0.060642f, -0.008013f, -0.076861f, -0.003324f, -0.038365f, 0.040389f, 0.131784f, -0.067330f, -0.030793f, 0.000440f, 0.073980f, -0.015455f, -0.037336f, -0.008439f, 0.046057f, -0.051739f, -0.001339f, -0.061513f, -0.051726f, 0.062465f, -0.127237f, 0.012377f, 0.045505f, 0.033740f, 0.076349f, -0.003388f, 0.007642f, -0.083458f, -0.042876f, 0.014357f, 0.008589f, 0.074992f, 0.014825f, -0.006091f, 0.005183f, -0.044642f, 0.164173f, 0.072523f, 0.022038f, -0.031152f, 0.006777f, 0.116318f, -0.051568f, 0.072971f, 0.017892f, -0.000882f, 0.029411f, -0.012510f, -0.032134f, -0.019720f, 0.063568f, -0.065541f, 0.016670f, -0.052821f, 0.023368f, -0.017470f, -0.032662f, -0.016987f, 0.056243f, 0.033363f, 0.045034f, 0.022084f, -0.002894f, -0.026217f, 0.040802f, 0.021071f, 0.000296f, 0.065822f, 0.116296f, 0.096182f, -0.027341f, 0.000762f, -0.000515f, 0.031589f, -0.059348f, 0.078107f, 0.024420f, 0.052901f, -0.052012f, 0.111710f, 0.029760f, 0.042049f, 0.066259f, 0.082644f, -0.017688f, -0.015135f, 0.021284f, 0.008136f, 0.034742f, 0.000551f, -0.001589f, 0.027772f, -0.032799f, -0.008784f, -0.038407f, 0.046261f, -0.023775f, 0.020804f, 0.014358f, -0.048726f, 0.008665f, 0.039770f, 0.018460f, -0.012089f, 0.014270f, 0.006159f, -0.010287f, 0.102997f, 0.135568f, -0.005121f, -0.035493f, -0.043924f, 0.027115f, -0.027697f, -0.015150f, -0.127169f, 0.033135f, 0.017562f, -0.041809f, -0.002803f, 0.029547f, -0.108864f, 0.025853f, -0.012285f, 0.062524f, 0.001199f, -0.032871f, -0.056075f, -0.046332f, 0.016371f, 0.025694f, -0.040892f, 0.023742f, 0.005822f, -0.036683f, 0.070524f, -0.066337f, -0.052949f, -0.037963f, -0.023563f, -0.008670f, -0.036821f, 0.059169f, -0.025163f, 0.005174f, 0.027382f, -0.035211f, -0.002406f, -0.090353f, -0.088413f, -0.000646f, -0.016788f, -0.057132f, -0.038312f, -0.027272f, -0.008696f, 0.003197f, 0.000545f, -0.000711f, -0.040451f, 0.021019f, -0.058261f, -0.011777f, -0.012955f, -0.040051f, -0.072896f, -0.038761f, 0.023732f, -0.076507f, -0.145596f, -0.007312f, -0.034641f, 0.044999f, 0.022295f, -0.014978f, 0.018532f, 0.008462f, -0.032604f, 0.009279f, 0.025180f, -0.042902f, -0.016372f, -0.036213f, 0.025691f, -0.048357f, -0.006867f, 0.015206f, -0.031520f, 0.025810f, 0.024750f, -0.042116f, -0.064756f, 0.120989f, 0.031231f, -0.033549f, 0.038320f, 0.052628f, -0.047826f, -0.037233f, 0.043328f, 0.034163f, -0.065620f, 0.079078f, -0.003755f, -0.016291f, 0.037713f, -0.003202f, -0.074289f, -0.021044f, -0.018111f, -0.016192f, 0.097241f, 0.015650f, -0.007899f, -0.032194f, 0.034002f, 0.064042f, 0.005475f, 0.091249f, -0.032600f, 0.011297f, -0.021959f, 0.010289f, 0.062464f, 0.010694f, -0.029382f, -0.027422f, -0.026230f, 0.060917f, -0.002507f, -0.015194f, -0.073133f, -0.012437f, 0.008774f, -0.021038f, 0.070412f, 0.038606f, -0.011158f, -0.016733f, 0.014131f, 0.022628f, 0.109125f, 0.054057f, -0.040612f, -0.044574f, -0.031768f, -0.040310f, -0.044174f, -0.024197f, -0.002799f, -0.057307f, -0.019916f, 0.007675f, -0.001487f, 0.025096f, -0.019215f, 0.014450f, 0.041504f, -0.018642f, 0.025018f, 0.003312f, 0.008971f, -0.073824f, 0.074855f, 0.057209f, -0.063724f, -0.023151f, 0.010810f, 0.094929f, -0.024148f, -0.026818f, 0.031268f, -0.001136f, -0.024634f, 0.075214f, 0.084878f, -0.011557f, 0.039950f, -0.067584f, -0.024498f, 0.067280f, 0.042925f, 0.034512f, 0.022301f, 0.010401f, 0.023682f, -0.002345f, -0.040476f, 0.010493f, 0.048367f, -0.040308f, -0.076149f, -0.027194f, 0.047774f, 0.008618f, 0.026769f, 0.064273f, -0.058610f, 0.040324f, -0.037354f, -0.058695f, 0.058262f, 0.062649f, 0.009285f, -0.056802f, 0.040092f, 0.059217f, 0.033575f, 0.047371f, 0.062990f, -0.050230f, -0.000387f, 0.002450f, -0.006290f, 0.068526f, 0.032203f, 0.155256f, 0.068556f, 0.049138f, 0.005170f, 0.061561f, -0.020580f, 0.143192f, -0.023284f, 0.007342f, -0.013886f, -0.045949f, 0.021436f, -0.016873f, 0.005856f, -0.008239f, -0.001369f, 0.001600f, -0.001381f, 0.013009f, -0.047933f, 0.058280f, 0.032906f, -0.032135f, -0.015630f, 0.052478f, -0.071214f, -0.034069f, -0.029106f, -0.020594f, -0.074708f, 0.001865f, 0.057116f, -0.085989f, -0.013815f, 0.054263f, -0.014143f, -0.028188f, -0.004871f, -0.047185f, 0.043345f, 0.044652f, -0.008184f, 0.023511f, 0.011538f, -0.070219f, -0.036112f, 0.023189f, -0.045666f, 0.008113f, -0.002388f, -0.003867f, 0.037999f, -0.032869f, -0.021213f, 0.159686f, -0.008599f, -0.041979f, -0.011581f, 0.031702f, -0.018199f, 0.046645f, 0.065761f, 0.028798f, -0.006461f, 0.034362f, -0.110551f, -0.102876f, -0.009411f, -0.005658f, -0.054357f, -0.036014f, 0.123636f, 0.022110f, -0.028974f, -0.023178f, 0.044103f, 0.085484f, -0.062432f, 0.002778f, -0.051552f, -0.039510f, -0.001629f, -0.044929f, -0.005320f, -0.004003f, 0.092496f, -0.009908f, 0.018794f, 0.033282f, -0.038966f, 0.009211f, 0.034521f, -0.026693f, -0.033299f, -0.004885f, 0.055266f, -0.040419f, -0.026891f, -0.032158f, 0.030690f, 0.006479f, -0.041244f, 0.024695f, -0.032612f, 0.047992f, -0.017276f, 0.075292f, -0.078420f, -0.001424f, -0.089470f, 0.084885f, -0.034879f, 0.057027f, -0.026677f, 0.056751f, 0.006272f, 0.002436f, 0.041302f, -0.013374f, -0.016874f, 0.090565f, -0.000920f, 0.005848f, 0.009560f, 0.018200f, 0.055938f, -0.003609f, -0.028403f, 0.025114f, -0.004725f, -0.002974f, 0.048962f, 0.026497f, -0.002250f, 0.017892f, -0.024781f, 0.049177f, 0.063167f, -0.010054f, 0.011298f, 0.021398f, -0.001351f, -0.023346f, -0.070105f, -0.053755f, 0.008945f, 0.006723f, 0.059296f, 0.006174f, 0.011535f, -0.056156f, 0.025298f, -0.014405f, 0.036921f, 0.038394f, 0.084776f, 0.004330f, -0.049739f, 0.036663f, 0.061635f, -0.039044f, 0.033279f, -0.034074f, -0.076430f, -0.007615f, -0.037626f, -0.017384f, -0.007290f, -0.077244f, -0.042332f, -0.101607f, 0.038314f, -0.049721f, 0.014834f, 0.062218f, -0.056378f, 0.010681f, 0.024033f, 0.053494f, -0.013531f, -0.013110f, -0.019106f, 0.002971f, 0.089359f, 0.022222f, -0.001547f, 0.026430f, -0.054413f, 0.001245f, 0.006899f, -0.016689f, 0.031833f, -0.025706f, 0.090705f, -0.017421f, 0.020559f, 0.068726f, 0.002504f, -0.006519f, 0.069980f, -0.079935f, 0.095042f, 0.010553f, 0.033413f, -0.016124f, 0.099823f, -0.044526f, -0.031339f, -0.026407f, -0.046096f, -0.029775f, -0.015788f, -0.033709f, 0.012080f, -0.058568f, -0.047180f, -0.029509f, -0.040399f, -0.039272f, -0.115736f, -0.039841f, -0.024933f, -0.039724f, 0.061297f, -0.006486f, 0.106367f, 0.073870f, -0.017537f, -0.029574f, 0.052317f, -0.064959f, 0.072626f, -0.026205f, 0.033389f, -0.000105f, -0.083959f, 0.059801f, -0.012419f, 0.064317f, -0.009668f, -0.029883f, 0.018091f, -0.028929f, 0.001820f, -0.012115f, 0.062433f, 0.080767f, -0.014348f, -0.036435f, -0.098948f, -0.066900f, 0.003366f, -0.036017f, -0.083684f, -0.014017f, -0.072812f, -0.080715f, 0.077877f, -0.031388f, 0.057487f, 0.051622f, 0.006984f, 0.029325f, 0.007651f, -0.044247f, 0.054673f, 0.072019f, -0.063241f, -0.009618f, 0.016625f, 0.047856f, -0.045806f, -0.061561f, 0.027006f, -0.031118f, -0.028714f, -0.047817f, 0.025026f, -0.013493f, 0.027215f, 0.055651f, -0.027959f, -0.037339f, -0.006537f, -0.022555f, 0.116788f, 0.064241f, -0.040532f, -0.060873f, 0.002733f, -0.077242f, 0.022314f, 0.124394f, 0.028849f, -0.014468f, -0.056921f, -0.011020f, 0.043433f, -0.008729f, -0.038071f, 0.029113f, 0.005624f, 0.058780f, -0.022928f, 0.053326f, 0.006966f, -0.031585f, 0.031101f, -0.015058f, -0.043061f, -0.016899f, 0.010031f, 0.056830f, 0.071242f, -0.032603f, -0.010700f, 0.008047f, 0.016689f, 0.007399f, 0.107667f, -0.014863f, 0.077221f, 0.021068f, 0.148859f, 0.014601f, -0.056951f, -0.010465f, -0.001631f, -0.064683f, -0.037233f, -0.024259f, 0.065054f, 0.010878f, -0.046000f, -0.023262f, 0.038179f, -0.005739f, 0.009912f, 0.003411f, 0.046069f, 0.009861f, -0.038065f, -0.096159f, 0.058001f, -0.017029f, -0.036502f, 0.005996f, 0.017195f, 0.101487f, -0.084177f, 0.079591f, -0.002975f, 0.037521f, 0.062794f, -0.062459f, 0.016596f, 0.082213f, 0.075860f, 0.032152f, -0.028338f, 0.060080f, -0.049281f, -0.077875f, 0.002537f, -0.022738f, 0.008747f, 0.099670f, -0.019771f, -0.030858f, -0.075128f, -0.069918f, -0.014694f, -0.012459f, -0.001392f, 0.041460f, -0.069338f, -0.055613f, -0.030088f, -0.006834f, -0.107375f, 0.024730f, 0.018689f, -0.022293f, -0.099266f, -0.025236f, -0.000960f, -0.021920f, -0.012668f, -0.044859f, 0.027033f, 0.100341f, 0.019215f, -0.085194f, -0.028904f, 0.142004f, -0.005150f, 0.036560f, -0.007516f, -0.028206f, -0.039159f, -0.016906f, 0.036605f, -0.023273f, -0.016758f, 0.009811f, 0.057680f, 0.016456f, 0.056810f, 0.002502f, 0.102438f, 0.002180f, 0.067021f, 0.023647f, -0.016039f, 0.006525f, 0.111122f, 0.011367f, -0.011698f, -0.030290f, 0.010924f, -0.064203f, -0.028963f, 0.045703f, -0.090872f, 0.003131f, -0.086252f, -0.062757f, 0.006223f, -0.024363f, 0.023442f, 0.016380f, -0.013403f, 0.052955f, -0.060303f, 0.000566f, -0.017696f, 0.050763f, 0.037119f, 0.057755f, 0.014976f, 0.014368f, 0.016962f, 0.090109f, -0.043854f, 0.073848f, 0.025605f, 0.093132f, 0.001956f, 0.020498f, 0.028201f, 0.001957f, -0.082721f, 0.026716f, -0.077697f, 0.059944f, 0.006079f, -0.063212f, 0.070238f, 0.070554f, 0.071310f, -0.049219f, 0.020424f, -0.036505f, -0.035424f, -0.002194f, 0.084014f, 0.050179f, 0.078167f, -0.008859f, 0.013592f, -0.097100f, -0.004626f, -0.055777f, 0.001565f, -0.016220f, 0.036815f, -0.036006f, -0.002787f, 0.043582f, 0.031162f, -0.008602f, 0.051493f, -0.065102f, 0.029722f, -0.004394f, 0.005645f, 0.020444f, -0.032734f, 0.056674f, -0.040199f, 0.009864f, 0.032355f, -0.084153f, 0.037213f, 0.043587f, 0.024636f, 0.030683f, 0.006750f, 0.080599f, 0.044097f, 0.056831f, 0.053523f, 0.027289f, -0.073113f, 0.031552f, 0.086840f, 0.010328f, 0.112800f, -0.017813f, 0.017929f, -0.021443f, 0.075433f, -0.008053f, -0.101301f, 0.071775f, -0.004365f, 0.034444f, -0.019847f, -0.065905f, -0.056021f, -0.070753f, -0.017744f, 0.057241f, 0.014117f, -0.083465f, 0.000925f, -0.056159f, 0.144408f, 0.019436f, -0.003632f, 0.003769f, 0.022481f, -0.046663f, 0.059652f, -0.016215f, 0.043977f, -0.004998f, 0.106150f, 0.000513f, -0.042513f, -0.000037f, 0.043322f, 0.009940f, 0.029410f, 0.010007f, 0.050364f, 0.051510f, 0.100483f, 0.026802f, 0.079456f, 0.077483f, -0.086441f, -0.016915f, -0.017044f, 0.039613f, -0.046798f, -0.014156f, -0.007936f, 0.033185f, 0.014398f, 0.019140f, -0.012910f, 0.040577f, 0.006074f, 0.143023f, 0.048099f, -0.020627f, 0.044677f, 0.015163f, 0.143322f, 0.070208f, -0.009637f, 0.006382f, -0.003443f, 0.018239f, 0.110718f, -0.032468f, -0.016326f, 0.020054f, 0.049287f, 0.092886f, -0.022831f, -0.020006f, -0.028551f, 0.004524f, 0.090294f, -0.012968f, -0.062508f, -0.141978f, 0.003271f, 0.016920f, 0.021951f, -0.012896f, 0.062954f, -0.045212f, -0.023161f, -0.031659f, 0.014663f, -0.021857f, 0.098384f, -0.179239f, 0.003862f, -0.037608f, 0.040644f, 0.021001f, -0.031425f, 0.051246f, -0.004960f, 0.030077f, -0.038906f, 0.119657f, 0.006720f, -0.061334f, -0.015940f, 0.018101f, 0.115524f, 0.032429f, -0.022286f, -0.030705f, -0.036933f, -0.057618f, 0.006813f, 0.096704f, -0.032096f, 0.012402f, -0.183706f, -0.003287f, 0.012351f, 0.014330f, -0.033752f, 0.109937f, 0.006379f, 0.110511f, -0.001526f, 0.045408f, 0.071171f, -0.010521f, -0.001146f, 0.025229f, -0.015958f, 0.006205f, -0.048340f, -0.112555f, -0.021362f, 0.007659f, 0.005604f, -0.022982f, -0.021336f, 0.011299f, 0.036031f, -0.014774f, 0.011649f, -0.047367f, 0.019114f, 0.003903f, 0.051703f, 0.008460f, -0.007183f, 0.047270f, -0.011025f, -0.026741f, 0.053041f, -0.053573f, 0.001425f, -0.027999f, -0.001783f, -0.010314f, 0.002945f, 0.042723f, -0.034964f, 0.004088f, -0.038887f, -0.034111f, -0.054161f, 0.022935f, 0.078996f, -0.021196f, -0.063681f, -0.063591f, -0.045771f, 0.028435f, 0.084925f, -0.016408f, 0.151349f, 0.036024f, 0.001842f, 0.002462f, 0.017882f, 0.077192f, -0.061740f, -0.016709f, -0.001263f, -0.135978f, -0.054448f, 0.022628f, -0.031378f, 0.000658f, 0.054711f, -0.052769f, -0.092709f, -0.096304f, -0.005067f, -0.021175f, 0.068700f, 0.034133f, 0.020457f, -0.030543f, 0.005951f, -0.003644f, 0.024870f, -0.011941f, -0.099102f, -0.100594f, 0.000266f, 0.004295f, -0.002786f, 0.056703f, 0.036495f, 0.032812f, 0.051694f, -0.052694f, 0.012152f, 0.048368f, 0.048649f, 0.058265f, -0.012444f, 0.025648f, 0.057961f, 0.045753f, -0.046246f, 0.006036f, -0.010670f, 0.034958f, -0.059861f, 0.012481f, -0.008379f, -0.006554f, -0.005391f, 0.014443f, 0.044524f, 0.022204f, 0.013468f, 0.034074f, 0.000459f, -0.067459f, -0.033733f, -0.047359f, -0.054557f, -0.087841f, 0.050496f, 0.024577f, -0.019217f, 0.010898f, 0.037753f, 0.025686f, -0.002321f, -0.043230f, 0.028287f, 0.030359f, -0.013991f, -0.005274f, 0.000237f, -0.070443f, -0.016220f, 0.026992f, 0.036439f, 0.079120f, -0.012914f, 0.034668f, 0.027792f, 0.015157f, -0.085396f, -0.003394f, 0.026520f, -0.020151f, -0.030865f, -0.027140f, 0.006064f, 0.018939f, 0.000165f, 0.030396f, 0.051502f, -0.002517f, 0.039876f, 0.004532f, -0.143280f, 0.038888f, 0.034625f, -0.020410f, -0.023583f, 0.000764f, 0.062092f, 0.076990f, -0.039030f, -0.002391f, -0.071259f, 0.114740f, -0.012910f, 0.026912f, 0.013034f, 0.009846f, 0.102521f, -0.021648f, 0.004658f, -0.035071f, 0.010385f, -0.012302f, 0.060745f, -0.094856f, 0.121735f, 0.034138f, -0.024827f, 0.032949f, -0.024305f, -0.008943f, 0.021956f, 0.028021f, 0.085007f, -0.020221f, 0.016945f, 0.063460f, 0.008019f, -0.001982f, -0.018690f, -0.004498f, -0.049896f, -0.056367f, 0.019185f, -0.107163f, -0.043617f, 0.005259f, -0.049720f, -0.012476f, -0.012001f, 0.011038f, -0.000269f, -0.001963f, 0.032337f, 0.043888f, -0.057370f, -0.031812f, -0.093187f, -0.032716f, 0.034907f, -0.029529f, 0.057824f, -0.021562f, 0.031565f, -0.003472f, 0.062387f, 0.054359f, -0.010866f, -0.062753f, 0.056627f, 0.012414f, -0.035510f, 0.003911f, 0.063908f, -0.068922f, -0.053089f, -0.042331f, -0.016368f, -0.032587f, 0.014374f, 0.052024f, 0.005806f, 0.002734f, 0.000549f, 0.029091f, 0.038971f, 0.107447f, 0.031472f, 0.057201f, 0.011066f, -0.088570f, 0.007843f, -0.097541f, -0.104250f, -0.027639f, 0.035039f, 0.008628f, 0.025672f, -0.000462f, -0.053835f, 0.003868f, -0.041392f, 0.025499f, -0.004137f, -0.020259f, -0.055447f, 0.018059f, 0.129547f, 0.054174f, -0.081472f, -0.003105f, 0.020967f, -0.001584f, -0.067366f, -0.027703f, -0.007768f, 0.073199f, 0.063143f, 0.041575f, 0.055411f, -0.043847f, 0.080464f, 0.020290f, 0.010904f, -0.004023f, -0.045544f, 0.008476f, 0.019333f, 0.036944f, 0.024357f, -0.094849f, 0.029506f, -0.041695f, -0.053440f, -0.040049f, -0.060112f, 0.089886f, -0.013027f, -0.047893f, 0.014955f, 0.029079f, -0.057449f, -0.030870f, 0.048549f, -0.031386f, 0.015765f, 0.041427f, 0.020683f, 0.013236f, -0.022383f, -0.003345f, 0.107463f, -0.019998f, -0.051544f, 0.087093f, -0.013390f, 0.017016f, -0.082211f, 0.066637f, -0.032610f, 0.053534f, 0.078849f, 0.041909f, -0.015367f, -0.026649f, 0.110375f, 0.069497f, -0.005372f, 0.069835f, -0.004422f, -0.001489f, -0.009013f, -0.011606f, -0.058007f, 0.035598f, 0.039482f, -0.012101f, 0.007134f, -0.020220f, -0.032035f, -0.015332f, -0.084597f, -0.042804f, -0.009553f, 0.019208f, 0.021003f, -0.023146f, -0.058997f, 0.093403f, 0.005053f, 0.035814f, 0.001113f, -0.037107f, -0.059187f, 0.009413f, 0.022789f, -0.008112f, -0.018034f, 0.114158f, 0.006338f, -0.037209f, -0.041816f, -0.023952f, -0.000520f, 0.028699f, -0.013255f, 0.061271f, -0.019003f, 0.088733f, -0.038325f, 0.013639f, -0.039182f, 0.065375f, 0.008708f, 0.017237f, 0.028693f, -0.026160f, 0.037192f, -0.022163f, -0.030469f, -0.011546f, 0.001351f, -0.031438f, 0.024870f, -0.069801f, 0.036267f, 0.019720f, -0.000544f, -0.017162f, 0.026907f, 0.098675f, -0.022040f, -0.008097f, 0.023510f, 0.044397f, 0.018372f, -0.000742f, 0.042747f, -0.041207f, -0.163778f, -0.016453f, -0.039704f, -0.018266f, 0.006581f, 0.081143f, 0.070952f, 0.008945f, -0.057792f, -0.001068f, -0.100944f, -0.018892f, -0.028452f, -0.054303f, 0.020758f, -0.095086f, 0.077079f, -0.034623f, 0.019200f, 0.132882f, -0.014399f, 0.007071f, -0.033090f, -0.020919f, 0.034904f, -0.062428f, 0.047286f, -0.051320f, -0.001306f, -0.033775f, -0.015347f, -0.022598f, 0.004076f, -0.001164f, 0.009203f, 0.003277f, -0.028785f, 0.033776f, 0.067030f, 0.130025f, 0.006112f, -0.000635f, -0.033133f, -0.118630f, -0.011877f, -0.052517f, 0.031160f, -0.027256f, 0.005130f, 0.015585f, 0.020098f, 0.017206f, 0.056973f, -0.031593f, 0.046408f, 0.018071f, -0.040418f, -0.009493f, -0.002576f, 0.037653f, -0.071802f, 0.090702f, -0.005450f, 0.011632f, -0.004083f, 0.010974f, -0.045868f, -0.101215f, -0.025554f, -0.051750f, 0.009537f, -0.042625f, -0.005180f, 0.009925f, 0.025404f, 0.038634f, -0.035264f, 0.015598f, -0.015269f, -0.004799f, 0.094538f, -0.159437f, -0.043898f, -0.040741f, 0.025487f, 0.033065f, 0.069852f, -0.013295f, -0.058943f, -0.079812f, -0.043761f, -0.022519f, 0.133774f, 0.075629f, 0.019508f, 0.018694f, 0.047454f, -0.105385f, -0.065473f, 0.021896f, 0.023396f, 0.033211f, -0.007424f, -0.038711f, -0.046600f, 0.050393f, 0.015819f, 0.024939f, -0.011644f, 0.029398f, 0.021840f, 0.005099f, 0.001212f, -0.010492f, 0.065497f, -0.051333f, 0.028258f, -0.010416f, 0.077783f, 0.057124f, 0.015837f, 0.005695f, -0.037364f, 0.026567f, 0.041433f, 0.003904f, -0.087225f, -0.002455f, -0.032788f, -0.023090f, -0.012718f, -0.027565f, 0.012538f, -0.086596f, 0.006612f, -0.066241f, -0.049439f, 0.012878f, -0.095680f, 0.045645f, -0.019578f, 0.001672f, -0.072362f, 0.006284f, -0.014103f, -0.003067f, 0.014056f, -0.037693f, -0.023600f, -0.023608f, 0.020709f, 0.039072f, -0.010240f, 0.019197f, 0.002784f, 0.034011f, 0.023566f, 0.050080f, -0.032390f, 0.025289f, 0.003851f, -0.017438f, -0.006596f, 0.013596f, 0.048825f, 0.030839f, -0.067257f, -0.044245f, -0.129213f, -0.107734f, -0.016401f, 0.059143f, 0.134410f, 0.022132f, -0.035258f, 0.003738f, -0.054915f, 0.038915f, -0.008045f, 0.024467f, -0.023737f, 0.084473f, 0.067195f, -0.011395f, 0.067489f, -0.042018f, -0.073631f, -0.061548f, 0.037219f, 0.032552f, 0.091790f, 0.056767f, 0.050176f, -0.017954f, 0.023980f, 0.080783f, 0.072890f, 0.029728f, 0.028364f, -0.135452f, 0.004377f, 0.002195f, 0.047211f, -0.059290f, 0.007875f, -0.081742f, 0.020363f, 0.090553f, 0.034307f, -0.013378f, -0.049029f, -0.008695f, 0.024728f, 0.039497f, -0.168948f, 0.031916f, -0.063611f, -0.042896f, -0.039327f, -0.013411f, -0.074564f, -0.019770f, -0.010356f, 0.019483f, -0.109185f, 0.051914f, 0.036005f, -0.016986f, 0.081101f, 0.019583f, -0.009736f, -0.025128f, 0.057764f, 0.008670f, 0.025479f, -0.087197f, -0.015564f, 0.022347f, 0.058289f, 0.008773f, 0.040920f, -0.066820f, 0.008224f, -0.049601f, 0.045940f, -0.025080f, -0.013793f, 0.063992f, -0.090126f, -0.020505f, 0.032529f, 0.015400f, -0.123384f, -0.127392f, -0.084281f, -0.037788f, -0.068043f, 0.036577f, -0.116807f, 0.022103f, 0.014659f, -0.017246f, 0.008593f, -0.023470f, -0.097236f, 0.072766f, 0.007803f, 0.004700f, 0.074942f, 0.024683f, -0.006818f, -0.060896f, -0.072256f, -0.013672f, -0.011317f, 0.029820f, 0.033273f, 0.010735f, 0.005766f, -0.027882f, -0.022342f, 0.010669f, 0.057950f, -0.011810f, 0.023822f, -0.023067f, -0.003430f, -0.067985f, 0.030697f, -0.004284f, -0.022547f, -0.008510f, 0.029259f, 0.017736f, -0.034852f, 0.036963f, 0.002952f, 0.030708f, 0.025314f, -0.042425f, -0.016389f, -0.015395f, -0.049020f, -0.068553f, 0.040399f, -0.004321f, 0.082008f, -0.057200f, -0.022312f, 0.030476f, -0.004870f, -0.023862f, -0.044425f, -0.034093f, 0.038330f, -0.060467f, 0.007974f, -0.054482f, 0.044098f, 0.104830f, 0.003908f, 0.035925f, -0.013180f, 0.007806f, 0.077326f, 0.048616f, -0.041953f, -0.010273f, 0.010679f, 0.020997f, 0.027023f, 0.023090f, -0.055584f, 0.017185f, 0.024708f, -0.060094f, -0.076239f, -0.001088f, 0.005282f, 0.028000f, 0.025817f, 0.089962f, -0.021436f, -0.019063f, -0.034993f, 0.021276f, -0.036902f, -0.010441f, 0.041395f, -0.005468f, -0.066368f, 0.014608f, 0.025078f, 0.114105f, 0.002266f, -0.013906f, 0.073733f, 0.048974f, 0.053278f, 0.011657f, -0.130999f, -0.009698f, 0.008882f, 0.016289f, 0.036691f, 0.008818f, -0.024664f, -0.044961f, -0.015930f, 0.105525f, -0.012156f, 0.014289f, 0.032151f, -0.032410f, 0.008814f, -0.029027f, -0.037904f, 0.023009f, 0.016788f, -0.053946f, -0.040363f, 0.008739f, 0.006550f, -0.009162f, -0.006987f, 0.012693f, 0.038745f, 0.011173f, 0.025688f, 0.116695f, -0.002696f, 0.054018f, -0.002941f, -0.081606f, 0.009188f, -0.004211f, 0.027567f, 0.001589f, -0.005968f, 0.028055f, 0.004554f, -0.065438f, -0.028663f, 0.042137f, -0.008567f, -0.040293f, -0.008912f, 0.019184f, -0.032297f, 0.000593f, -0.053053f, -0.008887f, 0.008531f, 0.030841f, 0.010346f, 0.027320f, 0.057353f, -0.055779f, -0.054271f, -0.087234f, -0.004593f, -0.060604f, 0.018431f, 0.020298f, 0.013099f, -0.012727f, -0.066436f, 0.012602f, -0.079053f, 0.017490f, 0.108567f, -0.171712f, -0.039947f, -0.059073f, 0.038432f, 0.055286f, -0.035176f, -0.055388f, 0.018089f, -0.008899f, -0.023026f, 0.027421f, 0.092903f, 0.068548f, 0.025557f, 0.061086f, 0.013452f, -0.014165f, 0.016403f, 0.009328f, 0.107392f, -0.029486f, -0.034489f, 0.087177f, 0.007848f, 0.031593f, 0.003298f, 0.003883f, 0.005351f, 0.024344f, 0.049313f, 0.047682f, -0.012031f, 0.042836f, -0.058250f, -0.068850f, -0.014967f, 0.005997f, -0.035281f, -0.032056f, 0.091865f, 0.039019f, 0.008424f, 0.069486f, 0.003082f, 0.001912f, 0.070520f, -0.001707f, -0.012347f, -0.017767f, -0.041345f, 0.024446f, 0.003488f, -0.049376f, -0.006495f, -0.032778f, -0.029793f, 0.019561f, 0.057234f, 0.030952f, -0.000041f, 0.050193f, -0.002278f, -0.065880f, -0.026373f, 0.029584f, -0.011194f, 0.007578f, -0.051063f, 0.052743f, -0.002949f, -0.021309f, 0.049886f, 0.044016f, -0.051135f, 0.073716f, 0.036506f, 0.017717f, 0.045722f, 0.035455f, 0.023607f, -0.008250f, -0.056014f, -0.021483f, 0.034470f, 0.064874f, -0.024609f, 0.003602f, -0.141684f, -0.022468f, -0.062941f, 0.074154f, 0.150407f, -0.034483f, -0.036256f, 0.053951f, -0.110768f, -0.032407f, -0.064471f, -0.019428f, 0.059584f, -0.003870f, 0.018811f, 0.012523f, 0.060509f, -0.074357f, 0.024364f, -0.024827f, 0.084353f, 0.024171f, 0.052729f, 0.047476f, 0.038815f, -0.005525f, -0.003773f, -0.021256f, 0.053572f, -0.006741f, 0.071041f, 0.085358f, 0.002878f, -0.067986f, 0.018971f, -0.009788f, -0.011916f, 0.018999f, -0.025527f, -0.035076f, 0.034698f, -0.002210f, -0.044522f, -0.005970f, 0.030187f, 0.025317f, -0.108541f, 0.005176f, -0.022588f, -0.041020f, -0.041688f, -0.045952f, -0.066065f, -0.083245f, 0.026304f, -0.000258f, -0.069845f, 0.050180f, 0.012728f, -0.047446f, -0.061695f, 0.009663f, -0.033895f, 0.030023f, -0.046106f, -0.042244f, 0.037680f, 0.057582f, 0.011728f, 0.055126f, 0.035910f, 0.019885f, 0.041765f, 0.010031f, 0.031001f, 0.046602f, 0.016656f, 0.022443f, 0.048266f, 0.076337f, -0.056025f, 0.027653f, 0.019655f, -0.032453f, -0.082988f, 0.073444f, 0.063109f, 0.043365f, -0.029318f, 0.089208f, 0.006523f, 0.016431f, 0.024514f, 0.011548f, 0.063188f, -0.011029f, -0.036248f, -0.015382f, 0.009219f, 0.007888f, -0.015155f, 0.035616f, -0.009320f, 0.008095f, 0.070580f, 0.042692f, 0.004708f, 0.054402f, 0.047201f, 0.154718f, 0.010419f, 0.048570f, 0.001576f, 0.008875f, 0.045168f, -0.001578f, -0.052731f, 0.019140f, -0.060976f, 0.036271f, 0.006153f, 0.019110f, 0.024210f, 0.017084f, 0.022321f, 0.023136f, 0.000250f, 0.005280f, -0.058943f, 0.012922f, 0.042032f, 0.096373f, 0.001428f, 0.041459f, -0.079806f, 0.010117f, 0.006669f, 0.021898f, 0.059131f, 0.088255f, -0.076324f, 0.104968f, -0.004009f, 0.044404f, -0.022456f, -0.055465f, -0.054904f, 0.056520f, 0.034505f, -0.064957f, 0.003293f, 0.057043f, 0.030747f, -0.004614f, 0.025513f, -0.002664f, -0.036620f, 0.035039f, 0.039587f, 0.019786f, 0.026126f, -0.071056f, -0.004000f, 0.025902f, -0.035861f, 0.018969f, -0.000772f, -0.084498f, 0.087746f, 0.001632f, -0.070673f, 0.001439f, 0.001004f, -0.041513f, -0.032125f, 0.000203f, -0.034360f, -0.022366f, 0.017324f, -0.014145f, -0.055592f, -0.013905f, 0.072214f, -0.018794f, -0.018157f, 0.000354f, -0.038693f, -0.103853f, -0.040523f, 0.018557f, -0.069497f, 0.001424f, 0.061628f, 0.017039f, -0.033886f, -0.029815f, 0.035591f, -0.052661f, 0.076331f, 0.010800f, 0.009814f, -0.075637f, -0.083024f, 0.028847f, 0.002368f, -0.026869f, -0.025721f, 0.033424f, -0.001502f, 0.010148f, -0.011544f, 0.010661f, 0.085472f, -0.085744f, 0.024861f, 0.009799f, -0.040227f, 0.028320f, 0.035346f, -0.033077f, -0.047144f, 0.098781f, -0.009220f, 0.002692f, 0.037902f, 0.015461f, 0.028475f, 0.031434f, -0.036548f, -0.041274f, 0.017566f, 0.081423f, -0.043647f, 0.067541f, -0.014289f, 0.028777f, 0.014018f, 0.006336f, -0.005934f, -0.001269f, 0.002330f, 0.043274f, 0.088963f, -0.057743f, -0.006468f, -0.035583f, -0.002383f, -0.016434f, 0.014764f, -0.026408f, -0.076229f, 0.030014f, -0.018438f, -0.056875f, -0.021244f, 0.078222f, -0.022923f, -0.031936f, 0.024577f, 0.012765f, 0.020819f, -0.005799f, -0.084719f, 0.037818f, -0.058420f, 0.030334f, -0.013103f, -0.032949f, -0.018533f, -0.036573f, 0.009646f, 0.056488f, 0.078644f, -0.018304f, 0.090333f, 0.013841f, -0.021012f, 0.007041f, 0.042137f, 0.017467f, 0.042466f, -0.003415f, -0.031652f, 0.034180f, 0.127897f, -0.079509f, -0.031160f, 0.011801f, 0.009272f, 0.050779f, -0.009886f, 0.031700f, -0.071280f, 0.048515f, 0.091623f, 0.013676f, -0.073315f, 0.092396f, -0.040218f, 0.022497f, 0.046903f, -0.070527f, -0.003263f, 0.043066f, -0.026427f, -0.016835f, 0.008655f, 0.019362f, -0.072555f, -0.007108f, -0.032875f, 0.108230f, 0.126353f, 0.050325f, -0.000616f, 0.058273f, -0.018998f, 0.158347f, 0.048230f, 0.008205f, 0.013302f, 0.001659f, 0.041226f, 0.074534f, -0.086190f, 0.105161f, -0.118215f, -0.002116f, 0.009305f, -0.080360f, 0.058644f, 0.010002f, 0.019891f, 0.011907f, -0.040112f, -0.006367f, 0.020899f, 0.017339f, -0.014465f, -0.013545f, 0.032615f, 0.089050f, 0.016090f, -0.030162f, -0.013774f, 0.040922f, 0.027956f, 0.062595f, 0.019867f, -0.042859f, 0.149997f, 0.096010f, -0.113137f, 0.001338f, -0.064546f, 0.060660f, 0.058313f, 0.070664f, 0.045342f, -0.086172f, -0.004672f, 0.010077f, -0.044695f, -0.059239f, -0.051025f, -0.011643f, 0.055177f, 0.025484f, 0.039771f, 0.013519f, 0.015401f, -0.024864f, -0.074605f, 0.062727f, 0.035914f, -0.008879f, 0.024471f, -0.018069f, 0.048023f, -0.074747f, 0.014810f, 0.054453f, 0.013607f, 0.024749f, -0.056405f, 0.020511f, 0.136481f, -0.009889f, 0.015103f, -0.022878f, 0.026255f, -0.046650f, 0.014997f, -0.003746f, 0.014847f, 0.038194f, 0.176869f, 0.031592f, -0.028598f, 0.025493f, 0.054917f, 0.047634f, 0.040106f, -0.028830f, -0.027780f, 0.027249f, -0.084329f, -0.013921f, 0.074184f, -0.074808f, 0.052049f, -0.034066f, -0.057720f, 0.062273f, -0.010343f, -0.060754f, 0.018678f, 0.081063f, -0.000482f, -0.006394f, -0.017854f, 0.001885f, 0.054182f, 0.005863f, -0.035737f, 0.004610f, -0.012397f, -0.011520f, 0.163589f, -0.112080f, 0.037156f, -0.002943f, 0.023866f, -0.032323f, -0.099654f, -0.025434f, -0.039527f, -0.010924f, 0.023487f, -0.026288f, -0.002112f, -0.023065f, 0.008556f, 0.017524f, -0.010709f, 0.060874f, -0.038557f, -0.162124f, 0.006037f, -0.063994f, -0.055903f, 0.068058f, 0.040377f, 0.020324f, 0.015519f, -0.063756f, -0.029094f, -0.025980f, 0.037823f, 0.014121f, 0.000571f, 0.041146f, -0.071390f, 0.007309f, -0.056146f, 0.049003f, -0.000056f, -0.088742f, 0.042530f, 0.030517f, 0.009763f, -0.039468f, -0.008463f, 0.010078f, 0.097759f, 0.038929f, 0.035470f, -0.038637f, 0.058143f, 0.005535f, 0.024449f, -0.043920f, -0.055968f, 0.022180f, -0.032070f, 0.080319f, 0.054129f, -0.004067f, 0.084723f, 0.092399f, -0.021127f, 0.021775f, 0.009244f, 0.007559f, 0.018755f, -0.029413f, 0.019471f, 0.034476f, 0.018495f, -0.070737f, 0.077958f, -0.092563f, 0.006438f, 0.019314f, 0.031546f, 0.072104f, -0.071354f, 0.037766f, -0.073099f, 0.025953f, 0.003510f, -0.011342f, 0.011011f, -0.022702f, 0.016401f, 0.055337f, -0.014076f, 0.131390f, -0.000182f, 0.002476f, 0.034246f, 0.093584f, -0.057482f, 0.059166f, 0.043051f, 0.017458f, 0.023187f, 0.050350f, 0.018178f, -0.018925f, -0.066804f, -0.017256f, 0.074410f, 0.008525f, -0.061826f, 0.047082f, -0.021969f, -0.097045f, 0.056814f, 0.048926f, 0.045153f, 0.060174f, 0.134463f, -0.010133f, 0.040518f, -0.007076f, -0.011898f, 0.046111f, -0.046733f, 0.019236f, -0.034352f, -0.035675f, 0.029786f, 0.041025f, -0.002711f, -0.011313f, 0.040156f, -0.067085f, -0.053934f, 0.024126f, 0.025181f, 0.048896f, -0.050122f, 0.078969f, 0.003692f, 0.045524f, -0.060394f, 0.021386f, 0.044455f, 0.034228f, -0.067780f, 0.030113f, 0.004511f, 0.003289f, -0.003020f, -0.058624f, 0.029068f, 0.015822f, -0.061166f, 0.000931f, -0.011870f, -0.065998f, -0.020096f, 0.043413f, 0.001260f, 0.027782f, 0.008658f, -0.016819f, -0.044882f, 0.014762f, -0.009908f, 0.062035f, 0.011373f, 0.067004f, 0.022774f, 0.005005f, 0.016191f, 0.042797f, -0.006075f, -0.018718f, 0.071409f, -0.101458f, 0.023787f, 0.073220f, -0.036650f, 0.008119f, -0.028584f, -0.019992f, 0.067346f, -0.003801f, 0.018117f, 0.011662f, -0.051290f, 0.072745f, 0.000442f, -0.023249f, -0.045726f, -0.008849f, 0.012860f, 0.072092f, -0.037557f, 0.049925f, -0.031160f, 0.040076f, 0.050166f, -0.085377f, -0.004432f, -0.064799f, 0.022072f, -0.062336f, 0.035375f, -0.051583f, 0.028766f, 0.006790f, 0.114124f, 0.051261f, -0.031534f, 0.010010f, 0.041710f, 0.030419f, 0.023800f, 0.057740f, 0.091743f, -0.072875f, 0.061914f, 0.099829f, -0.007417f, 0.036093f, 0.020654f, -0.017858f, -0.087690f, 0.117642f, 0.012789f, -0.013814f, 0.053949f, 0.109372f, 0.018613f, -0.027934f, 0.105756f, 0.005583f, 0.073602f, 0.099766f, 0.093632f, -0.010493f, -0.011254f, -0.050504f, 0.072321f, 0.073048f, 0.021519f, -0.042320f, -0.059875f, 0.000326f, -0.090157f, 0.047094f, -0.017431f, 0.084804f, -0.061245f, -0.017418f, 0.042180f, 0.043570f, 0.043803f, 0.042514f, 0.019544f, 0.043553f, 0.026543f, 0.017058f, -0.028642f, 0.015987f, 0.086446f, 0.010740f, -0.034237f, 0.035782f, 0.016058f, -0.025388f, 0.013682f, 0.038656f, 0.000524f, -0.161750f, 0.004539f, 0.004672f, 0.174679f, 0.081847f, -0.082244f, 0.033142f, -0.139903f, -0.036242f, -0.002591f, 0.058079f, -0.129205f, -0.103298f, 0.039566f, 0.020287f, -0.072792f, -0.055465f, 0.034736f, -0.003631f, 0.143761f, 0.047814f, 0.036695f, 0.032678f, 0.006494f, 0.030700f, -0.081358f, 0.082898f, 0.023714f, 0.000792f, 0.023924f, -0.044091f, -0.231505f, -0.178445f, 0.031793f, -0.041618f, -0.000276f, 0.125703f, -0.023639f, -0.037641f, -0.166121f, 0.011235f, -0.056399f, -0.024690f, -0.005784f, -0.050234f, -0.036235f, 0.009093f, 0.019244f, 0.012155f, -0.027336f, -0.086537f, -0.017880f, -0.021644f, -0.076262f, -0.133778f, 0.014426f, -0.133492f, -0.105380f, -0.076104f, -0.126501f, 0.021290f, 0.010654f, 0.019091f, 0.042777f, -0.009561f, -0.133006f, -0.000562f, 0.032954f, -0.061896f, 0.003734f, -0.075957f, 0.001321f, 0.005419f, -0.111702f, -0.002444f, 0.026972f, -0.180208f, 0.008726f, 0.083322f, 0.078562f, -0.001984f, -0.129869f, -0.126916f, -0.053861f, 0.031755f, 0.089382f, -0.005015f, -0.103686f, -0.053071f, 0.078178f, 0.043128f, -0.096833f, -0.021569f, 0.121662f, -0.007468f, 0.069541f, 0.055519f, -0.077358f, -0.004135f, 0.011213f, 0.109660f, 0.009220f, 0.036987f, 0.015770f, 0.001039f, -0.027555f, 0.062360f, -0.034773f, -0.066639f, -0.000373f, 0.024606f, 0.063114f, -0.091555f, 0.037156f, -0.069912f, 0.110186f, 0.034397f, -0.085548f, -0.002040f, 0.033687f, -0.045073f, -0.026630f, 0.017180f, -0.035835f, -0.027144f, -0.006310f, 0.021068f, -0.089123f, 0.002716f, 0.050323f, -0.035465f, 0.090962f, 0.069814f, -0.018037f, -0.033512f, 0.047618f, 0.058061f, 0.148283f, 0.086483f, -0.049528f, 0.008858f, -0.000755f, -0.020223f, -0.132539f, 0.164814f, 0.003936f, 0.029440f, -0.042674f, 0.023631f, -0.058581f, -0.047293f, 0.018386f, -0.008919f, -0.010156f, 0.126221f, 0.065798f, -0.018791f, 0.041372f, -0.061934f, 0.074893f, 0.106666f, -0.063346f, 0.017330f, 0.042217f, 0.134209f, 0.042448f, 0.016979f, -0.006768f, 0.002936f, -0.013723f, 0.108166f, -0.070443f, 0.001173f, -0.057893f, 0.014998f, -0.007746f, 0.204015f, 0.002902f, 0.027988f, 0.027880f, -0.165414f, -0.027891f, 0.001031f, -0.002571f, 0.004909f, 0.101709f, 0.020205f, 0.058979f, 0.009815f, 0.008068f, -0.153796f, 0.024513f, 0.069235f, -0.039504f, -0.027300f, -0.067125f, 0.003350f, 0.008137f, 0.021865f, -0.053154f, -0.011729f, 0.015950f, -0.055241f, -0.002549f, 0.071532f, 0.005583f, 0.000440f, 0.043409f, 0.009408f, -0.127511f, 0.003672f, -0.058852f, -0.015436f, -0.021690f, 0.082017f, 0.016643f, 0.015178f, 0.013009f, 0.018001f, -0.040850f, 0.001642f, 0.054066f, -0.017818f, 0.151075f, -0.211158f, -0.014956f, -0.001375f, 0.015846f, 0.034833f, 0.001200f, 0.045120f, -0.056959f, 0.027061f, 0.000855f, 0.143564f, -0.031183f, 0.041158f, -0.020817f, 0.032858f, 0.011273f, 0.027905f, -0.046157f, -0.034482f, 0.041900f, 0.050979f, -0.014092f, 0.052137f, -0.003210f, -0.005643f, -0.003190f, -0.059154f, -0.017444f, 0.044227f, 0.022681f, 0.055207f, 0.021043f, -0.089663f, -0.017568f, 0.059187f, -0.028598f, 0.027787f, 0.023717f, 0.015197f, 0.014465f, -0.026080f, -0.068163f, -0.021395f, 0.037944f, -0.027104f, -0.010306f, -0.043018f, 0.075149f, 0.026758f, 0.108584f, 0.063897f, -0.098307f, 0.034182f, 0.085194f, -0.172560f, -0.045137f, -0.030971f, -0.037682f, 0.110278f, -0.092302f, -0.013311f, -0.041607f, 0.017258f, -0.093038f, 0.066099f, -0.021148f, -0.039106f, 0.029202f, -0.005509f, 0.013555f, 0.115639f, 0.057532f, -0.002363f, 0.042811f, -0.055406f, -0.004939f, -0.057345f, -0.040046f, -0.022832f, 0.059023f, 0.039727f, 0.051536f, 0.049458f, -0.035546f, 0.039689f, 0.024400f, 0.001563f, 0.005770f, -0.003543f, 0.088007f, -0.007449f, -0.110328f, -0.049981f, -0.006804f, 0.035508f, -0.031432f, -0.093511f, 0.063310f, 0.024878f, -0.001674f, 0.018818f, 0.105752f, -0.076991f, -0.020482f, -0.035219f, 0.004722f, 0.025266f, 0.056044f, -0.014620f, 0.035839f, -0.030944f, 0.023033f, -0.032349f, -0.002678f, 0.042249f, 0.017135f, 0.064945f, -0.012076f, 0.024813f, 0.054115f, -0.012774f, 0.015262f, -0.003335f, -0.020509f, 0.027391f, 0.016177f, 0.119347f, 0.015769f, 0.030776f, -0.036851f, 0.011005f, -0.046087f, -0.076719f, -0.077030f, -0.024074f, 0.001171f, 0.016397f, -0.011564f, 0.099514f, 0.044010f, 0.022086f, 0.068202f, -0.071069f, -0.045713f, -0.039216f, -0.074318f, 0.077086f, -0.007324f, 0.057525f, -0.044703f, -0.021364f, 0.105964f, -0.031708f, 0.084942f, -0.062650f, 0.010565f, -0.098901f, -0.054094f, 0.039497f, -0.018265f, 0.080331f, -0.010196f, 0.067022f, -0.092713f, 0.057526f, 0.089557f, -0.058216f, -0.026893f, -0.006498f, -0.043504f, -0.025071f, -0.129831f, 0.016375f, 0.089371f, 0.001719f, -0.067662f, -0.019155f, -0.060611f, -0.012009f, 0.065501f, 0.061357f, -0.080615f, -0.095384f, 0.035445f, 0.027199f, -0.096843f, 0.000350f, -0.032281f, -0.088257f, -0.059357f, 0.027998f, -0.119306f, 0.026720f, 0.028743f, -0.027672f, -0.028456f, 0.033812f, 0.001374f, -0.005151f, -0.004508f, 0.013015f, -0.071938f, 0.130769f, -0.003901f, -0.046258f, 0.069485f, 0.006435f, 0.008906f, -0.090605f, 0.041618f, 0.167729f, -0.066027f, -0.015150f, 0.012612f, 0.062640f, -0.032870f, -0.018138f, -0.004509f, -0.028715f, -0.063605f, 0.028903f, -0.000950f, -0.001500f, 0.033014f, 0.033186f, -0.057175f, 0.037954f, 0.014175f, 0.037978f, -0.014594f, 0.014239f, -0.005562f, 0.037589f, 0.018437f, 0.068982f, -0.013213f, -0.097847f, -0.059792f, 0.012472f, -0.015655f, 0.037184f, -0.059393f, 0.001339f, 0.054157f, 0.006497f, -0.008373f, 0.025406f, 0.045329f, 0.080926f, 0.027342f, 0.038204f, -0.029008f, 0.034720f, -0.067058f, 0.039532f, -0.034553f, 0.040299f, -0.056897f, 0.003782f, 0.020501f, -0.037578f, -0.013399f, 0.060510f, -0.111125f, -0.065799f, -0.040905f, -0.004000f, -0.010528f, -0.020545f, 0.087277f, 0.067259f, 0.003294f, -0.048269f, -0.107701f, -0.015416f, 0.124156f, -0.029792f, -0.041472f, 0.004583f, -0.035365f, -0.005770f, -0.006091f, -0.017849f, 0.000944f, -0.024784f, 0.063212f, 0.032718f, 0.050560f, -0.007387f, -0.023520f, 0.036579f, -0.049422f, 0.019344f, 0.000136f, -0.044609f, 0.014852f, 0.027399f, -0.021633f, -0.025117f, 0.011187f, 0.004823f, -0.010350f, 0.009468f, -0.055423f, 0.020077f, 0.031308f, 0.053950f, 0.043607f, 0.000278f, -0.024045f, 0.056802f, 0.047118f, 0.000369f, 0.014204f, 0.030097f, 0.003632f, 0.044510f, -0.029232f, 0.024690f, -0.122550f, 0.022976f, 0.016847f, -0.009490f, 0.062904f, 0.042385f, 0.011636f, 0.025690f, -0.051309f, 0.002223f, -0.021738f, -0.053367f, -0.053515f, -0.032350f, -0.008195f, -0.090735f, -0.098325f, -0.095101f, -0.002568f, 0.128652f, -0.010784f, -0.108641f, -0.108542f, -0.038322f, -0.019478f, -0.074063f, -0.049348f, -0.002533f, -0.051180f, -0.024238f, -0.052305f, -0.032936f, -0.003826f, 0.004778f, 0.021513f, -0.086956f, 0.000302f, 0.046776f, -0.041948f, 0.003530f, -0.008823f, -0.076289f, -0.040625f, -0.011077f, 0.037911f, 0.039688f, 0.027161f, 0.005417f, 0.073060f, 0.003413f, 0.025718f, 0.008218f, -0.085483f, 0.025486f, 0.003598f, 0.066923f, -0.050706f, 0.030361f, 0.027438f, -0.041303f, -0.036384f, -0.085705f, 0.013666f, 0.051418f, -0.001968f, -0.078896f, 0.049858f, -0.067966f, 0.000478f, -0.013187f, -0.093477f, 0.009192f, -0.036228f, -0.015373f, 0.002165f, 0.016125f, -0.029461f, 0.049277f, -0.106879f, 0.006168f, -0.087818f, 0.069838f, 0.020728f, -0.010826f, -0.048638f, 0.076415f, 0.046479f, -0.013034f, -0.092748f, -0.110622f, 0.005178f, 0.053568f, 0.081024f, 0.000822f, -0.023754f, 0.068741f, -0.055441f, -0.084567f, 0.015631f, -0.025220f, -0.043531f, -0.003431f, 0.099595f, 0.083614f, -0.148899f, -0.061804f, 0.029501f, -0.030788f, -0.043269f, 0.027561f, 0.027082f, -0.125120f, 0.097542f, -0.047092f, 0.024854f, 0.010294f, 0.035049f, -0.026443f, -0.083492f, 0.022398f, -0.039077f, 0.009217f, -0.054390f, 0.038902f, -0.006022f, 0.152210f, -0.019190f, 0.030202f, -0.054793f, -0.105513f, 0.024941f, -0.012008f, 0.073899f, -0.027621f, 0.079136f, 0.004276f, -0.034179f, 0.008467f, 0.047807f, 0.046725f, 0.010979f, 0.033626f, -0.012328f, 0.003157f, 0.027345f, 0.012054f, -0.006899f, -0.083676f, 0.008407f, 0.035586f, 0.001602f, -0.039315f, -0.048719f, 0.012057f, 0.028282f, -0.033119f, 0.088150f, 0.015162f, -0.024424f, 0.010281f, 0.034414f, 0.084154f, 0.010600f, -0.059218f, -0.068654f, 0.003001f, -0.012437f, 0.030441f, 0.116624f, 0.020615f, 0.018648f, -0.009379f, 0.055239f, 0.023613f, -0.024629f, -0.031016f, 0.002584f, 0.037159f, -0.026985f, 0.000195f, -0.010420f, 0.026555f, 0.087064f, -0.000319f, 0.044087f, -0.051711f, 0.011862f, 0.044174f, -0.076503f, -0.026523f, 0.000305f, 0.081705f, -0.012259f, -0.018317f, -0.058079f, -0.115239f, 0.044035f, -0.023462f, 0.029874f, -0.034188f, 0.034482f, 0.006135f, 0.003818f, 0.010600f, 0.035866f, -0.014463f, 0.087721f, 0.007849f, -0.057098f, 0.021742f, -0.033272f, 0.060530f, -0.020864f, 0.023570f, 0.070836f, -0.035891f, 0.005496f, -0.036974f, 0.042178f, 0.044428f, -0.036783f, 0.011318f, -0.004860f, 0.033940f, -0.070052f, -0.029242f, -0.026703f, 0.021472f, 0.014184f, 0.015480f, 0.044719f, -0.010370f, -0.041650f, 0.049876f, -0.016880f, -0.053273f, 0.012740f, 0.001405f, 0.102250f, 0.035326f, 0.004354f, 0.033340f, 0.066355f, 0.025797f, 0.048404f, -0.051252f, 0.014238f, 0.079314f, -0.060995f, -0.029883f, 0.040809f, 0.036514f, -0.000096f, 0.015728f, 0.061659f, 0.020492f, 0.068122f, 0.067423f, -0.005470f, -0.069186f, -0.062033f, 0.013478f, -0.007169f, -0.010017f, 0.067693f, 0.076138f, -0.020283f, 0.038972f, 0.036071f, 0.025649f, 0.001215f, 0.074537f, -0.075810f, 0.049101f, -0.003658f, 0.047054f, 0.021036f, -0.006825f, 0.033598f, 0.094710f, -0.070144f, 0.046565f, 0.043569f, 0.021046f, 0.011951f, -0.050450f, 0.004313f, -0.045662f, 0.051059f, -0.068788f, -0.001389f, 0.012702f, -0.025365f, -0.033002f, 0.089848f, -0.042690f, 0.024756f, -0.018762f, 0.013296f, 0.003661f, 0.009608f, 0.057617f, 0.000805f, 0.047351f, 0.023956f, -0.012463f, -0.000925f, -0.046508f, -0.050825f, -0.002390f, 0.040115f, 0.039334f, -0.015051f, 0.016523f, 0.030691f, 0.043134f, -0.077969f, 0.041371f, -0.016288f, -0.041799f, -0.078714f, 0.018592f, 0.076411f, 0.027857f, 0.009544f, 0.049292f, 0.007850f, -0.012993f, 0.051050f, -0.004624f, 0.090872f, -0.049321f, -0.011145f, -0.014531f, -0.033215f, -0.020433f, -0.064902f, 0.081385f, 0.129680f, -0.000523f, -0.042214f, -0.015152f, -0.076013f, -0.017404f, -0.070376f, 0.041894f, 0.053026f, -0.042224f, -0.016846f, 0.005805f, -0.029011f, -0.021156f, 0.017156f, -0.000418f, 0.007949f, -0.043976f, -0.057200f, 0.024350f, 0.031363f, 0.004745f, -0.042611f, -0.098566f, -0.033431f, -0.007035f, -0.029309f, -0.005216f, -0.051790f, -0.021122f, 0.082959f, 0.111513f, 0.005826f, -0.023451f, 0.036837f, -0.034280f, -0.039031f, 0.087846f, -0.010613f, 0.004410f, -0.021735f, -0.045076f, -0.047153f, -0.015685f, 0.009397f, -0.020522f, 0.037361f, -0.049816f, -0.029094f, 0.073518f, -0.015672f, 0.070571f, -0.019329f, -0.005002f, 0.032042f, -0.049780f, -0.009586f, -0.020357f, -0.030791f, -0.019598f, 0.062300f, 0.024242f, -0.025558f, -0.027659f, -0.119131f, 0.036365f, 0.000620f, 0.029074f, -0.016076f, -0.003544f, -0.055006f, -0.121682f, -0.024083f, 0.026546f, -0.022755f, -0.061521f, -0.001672f, -0.023833f, -0.011145f, 0.052233f, 0.033466f, -0.010300f, -0.074476f, -0.024065f, 0.060128f, -0.055338f, 0.002163f, 0.033097f, -0.021339f, -0.013239f, -0.053064f, 0.035098f, -0.058558f, -0.074250f, 0.176264f, 0.015925f, 0.054584f, 0.032727f, -0.005528f, -0.040387f, -0.119471f, -0.055654f, -0.035466f, -0.010436f, 0.018157f, -0.024601f, -0.057085f, -0.038385f, 0.026840f, 0.079650f, 0.017163f, 0.006115f, 0.027230f, 0.081602f, -0.039501f, 0.085835f, 0.055295f, -0.046272f, -0.051899f, 0.036796f, -0.025564f, 0.008402f, 0.005037f, -0.034412f, -0.037029f, -0.051030f, -0.011035f, 0.025688f, 0.006127f, 0.003170f, 0.033201f, -0.011075f, -0.013326f, -0.040064f, 0.009531f, 0.066271f, -0.007022f, -0.126802f, -0.024845f, 0.025236f, 0.047674f, 0.039841f, 0.012307f, 0.021614f, -0.052667f, 0.055263f, -0.082963f, -0.039853f, 0.012476f, -0.002348f, 0.014745f, -0.098748f, 0.010338f, -0.065192f, -0.007851f, 0.020091f, -0.030229f, -0.018788f, -0.002398f, 0.011787f, 0.000522f, 0.023226f, -0.021846f, 0.010605f, -0.047613f, -0.012918f, -0.004028f, 0.031826f, 0.003481f, -0.007673f, 0.051011f, -0.005210f, -0.048554f, -0.097690f, -0.014521f, 0.019914f, -0.033408f, -0.014990f, 0.037858f, -0.005624f, 0.090116f, 0.012429f, 0.012670f, -0.049114f, -0.020719f, -0.085311f, -0.009660f, 0.027725f, -0.092325f, -0.026603f, -0.004133f, 0.011121f, 0.084555f, -0.014588f, 0.091443f, 0.028063f, 0.056061f, 0.025029f, -0.022771f, -0.006437f, 0.067186f, -0.074147f, 0.018329f, 0.129091f, 0.001235f, 0.032770f, 0.033663f, 0.051954f, 0.071801f, 0.064889f, 0.009180f, -0.029837f, 0.036025f, 0.026386f, -0.018048f, -0.017221f, 0.081206f, 0.036330f, -0.006155f, -0.035294f, -0.037949f, -0.016848f, 0.064459f, -0.000593f, 0.012366f, 0.016727f, 0.021852f, -0.030094f, 0.071237f, -0.071252f, 0.000184f, -0.007514f, -0.104976f, 0.075163f, 0.028125f, 0.024900f, 0.106764f, 0.037462f, -0.022756f, 0.092046f, -0.014987f, 0.024817f, -0.060681f, 0.005214f, -0.010497f, 0.056363f, -0.028123f, -0.042722f, 0.054928f, -0.028408f, -0.062758f, -0.091974f, -0.036982f, 0.120623f, 0.066504f, 0.047509f, 0.047909f, 0.097141f, -0.022798f, 0.077979f, -0.070527f, -0.009519f, -0.038532f, 0.031098f, 0.028700f, 0.027085f, 0.050700f, 0.033224f, 0.016115f, -0.073990f, -0.030171f, 0.048983f, 0.034055f, -0.007372f, -0.015424f, 0.013372f, -0.042239f, 0.022084f, -0.020366f, -0.028875f, 0.033656f, 0.103668f, -0.024281f, 0.088386f, -0.033411f, 0.021961f, 0.053962f, 0.062413f, -0.029467f, -0.082324f, -0.050401f, -0.006324f, 0.066722f, -0.000006f, 0.004534f, 0.029591f, 0.060708f, -0.039244f, 0.030457f, -0.045200f, 0.036829f, 0.039565f, -0.054048f, 0.028032f, 0.003853f, 0.053953f, -0.104525f, -0.016640f, 0.020589f, -0.008913f, 0.027375f, -0.010999f, 0.014351f, -0.053245f, -0.002546f, 0.052605f, -0.015051f, 0.032772f, 0.100291f, -0.056073f, 0.002890f, -0.035889f, 0.018809f, -0.083712f, 0.018670f, 0.001114f, 0.019288f, 0.036043f, 0.043309f, -0.006683f, 0.043494f, 0.038857f, 0.006174f, 0.045526f, 0.019552f, -0.034927f, 0.010978f, 0.004769f, -0.000452f, 0.016063f, 0.036175f, 0.032933f, -0.048968f, 0.009895f, 0.044046f, -0.020565f, 0.018048f, 0.005145f, 0.001133f, 0.076192f, -0.019156f, -0.004481f, -0.035874f, 0.001079f, 0.074975f, -0.021988f, -0.014107f, -0.047934f, 0.006331f, -0.038321f, 0.023035f, 0.043984f, 0.004198f, -0.042996f, 0.033107f, -0.024157f, -0.023358f, -0.043211f, 0.066120f, 0.090110f, -0.047374f, -0.002947f, -0.033099f, 0.002831f, 0.029704f, 0.001985f, 0.049768f, 0.035776f, -0.043085f, -0.046872f, 0.082920f, 0.121151f, -0.049933f, 0.069135f, -0.034929f, -0.014175f, 0.028298f, -0.080035f, 0.072227f, -0.009757f, 0.051704f, 0.008981f, 0.043785f, -0.049189f, -0.005771f, -0.000115f, 